{"learner":{"attributes":{"scikit_learn":"{\"_estimator_type\": \"classifier\"}"},"feature_names":[],"feature_types":[],"gradient_booster":{"model":{"gbtree_model_param":{"num_parallel_tree":"1","num_trees":"100"},"iteration_indptr":[0,1,2,3,4,5,6,7,8,9,10,11,12,13,14,15,16,17,18,19,20,21,22,23,24,25,26,27,28,29,30,31,32,33,34,35,36,37,38,39,40,41,42,43,44,45,46,47,48,49,50,51,52,53,54,55,56,57,58,59,60,61,62,63,64,65,66,67,68,69,70,71,72,73,74,75,76,77,78,79,80,81,82,83,84,85,86,87,88,89,90,91,92,93,94,95,96,97,98,99,100],"tree_info":[0,0,0,0,0,0,0,0,0,0,0,0,0,0,0,0,0,0,0,0,0,0,0,0,0,0,0,0,0,0,0,0,0,0,0,0,0,0,0,0,0,0,0,0,0,0,0,0,0,0,0,0,0,0,0,0,0,0,0,0,0,0,0,0,0,0,0,0,0,0,0,0,0,0,0,0,0,0,0,0,0,0,0,0,0,0,0,0,0,0,0,0,0,0,0,0,0,0,0,0],"trees":[{"base_weights":[1.2371925E-4,-6.471893E-1,1.0290408E0,-1.2739153E0,-2.2303236E-1,8.820504E-2,1.3510083E0,-1.5452766E0,-7.6807004E-1,3.0089527E-2,-1.3402762E0,-6.165103E-1,9.6316266E-1,1.4212295E0,-4.4123584E-1,-1.5986187E0,-3.6801732E-1,-1.2170376E0,2.3405714E-2,5.1179576E-1,-5.089297E-1,-8.8286537E-1,-1.7364471E0,-6.1954528E-2,-1.3536246E0,1.4134381E0,-7.259998E-3,1.5299932E0,8.163319E-1,6.0440928E-2,-1.0783555E-1,-1.6436855E-1,-2.5490874E-2,-7.3133625E-2,1.5916077E-2,6.0440928E-2,-1.3794409E-1,4.5551356E-2,-1.0193838E-1,-1.3398434E-2,8.772168E-2,-6.812736E-2,5.2385766E-2,-1.01575434E-1,1.5916077E-2,-2.8608775E-2,-1.897016E-1,7.403155E-2,-7.659225E-2,-1.6572796E-1,1.5916077E-2,4.9112033E-2,1.6472845E-1,6.66103E-2,-9.8368905E-2,1.6071181E-1,7.898128E-2,-2.3124905E-3,1.3011815E-1],"categories":[],"categories_nodes":[],"categories_segments":[],"categories_sizes":[],"default_left":[0,0,0,0,0,0,0,0,0,0,0,0,0,0,0,0,0,0,0,0,0,0,0,0,0,0,0,0,0,0,0,0,0,0,0,0,0,0,0,0,0,0,0,0,0,0,0,0,0,0,0,0,0,0,0,0,0,0,0],"id":0,"left_children":[1,3,5,7,9,11,13,15,17,19,21,23,25,27,29,31,33,35,37,39,41,43,45,47,49,51,53,55,57,-1,-1,-1,-1,-1,-1,-1,-1,-1,-1,-1,-1,-1,-1,-1,-1,-1,-1,-1,-1,-1,-1,-1,-1,-1,-1,-1,-1,-1,-1],"loss_changes":[2.136033E2,5.204754E1,3.739711E1,9.690811E0,3.358492E1,2.0723684E1,1.2231125E1,2.5885086E0,1.0566845E1,2.5624193E1,2.441269E0,7.557008E0,6.544739E0,4.6039734E0,3.4760847E0,2.4935608E0,7.8521174E-1,6.4368134E0,5.7431183E0,1.2408263E1,8.651665E0,1.8529091E0,1.953392E0,7.183364E0,3.9282398E0,1.3952274E0,4.42566E0,2.9699707E0,6.420987E0,0E0,0E0,0E0,0E0,0E0,0E0,0E0,0E0,0E0,0E0,0E0,0E0,0E0,0E0,0E0,0E0,0E0,0E0,0E0,0E0,0E0,0E0,0E0,0E0,0E0,0E0,0E0,0E0,0E0,0E0],"parents":[2147483647,0,0,1,1,2,2,3,3,4,4,5,5,6,6,7,7,8,8,9,9,10,10,11,11,12,12,13,13,14,14,15,15,16,16,17,17,18,18,19,19,20,20,21,21,22,22,23,23,24,24,25,25,26,26,27,27,28,28],"right_children":[2,4,6,8,10,12,14,16,18,20,22,24,26,28,30,32,34,36,38,40,42,44,46,48,50,52,54,56,58,-1,-1,-1,-1,-1,-1,-1,-1,-1,-1,-1,-1,-1,-1,-1,-1,-1,-1,-1,-1,-1,-1,-1,-1,-1,-1,-1,-1,-1,-1],"split_conditions":[1.1922725E-1,-4.6118036E-1,-4.021673E-1,-5.847771E-1,1.0804977E0,1.0109661E0,1.4149964E0,1.4623721E0,-6.9723266E-1,6.804042E-2,1.810313E0,-3.2154828E-1,2.3563471E-1,1.6011404E-1,-1.741985E0,1.3534358E0,6.5462047E-1,-9.375254E-1,1.0776282E-1,-4.808883E-2,-1.1544087E-1,1.6376843E0,-1.691825E0,3.81544E-1,3.0889007E-1,-6.9003487E-1,-9.847944E-2,5.331363E-1,8.2323164E-1,6.0440928E-2,-1.0783555E-1,-1.6436855E-1,-2.5490874E-2,-7.3133625E-2,1.5916077E-2,6.0440928E-2,-1.3794409E-1,4.5551356E-2,-1.0193838E-1,-1.3398434E-2,8.772168E-2,-6.812736E-2,5.2385766E-2,-1.01575434E-1,1.5916077E-2,-2.8608775E-2,-1.897016E-1,7.403155E-2,-7.659225E-2,-1.6572796E-1,1.5916077E-2,4.9112033E-2,1.6472845E-1,6.66103E-2,-9.8368905E-2,1.6071181E-1,7.898128E-2,-2.3124905E-3,1.3011815E-1],"split_indices":[10,9,9,10,6,10,6,3,9,1,6,7,1,4,7,8,1,1,7,9,10,5,8,8,4,4,3,6,10,0,0,0,0,0,0,0,0,0,0,0,0,0,0,0,0,0,0,0,0,0,0,0,0,0,0,0,0,0,0],"split_type":[0,0,0,0,0,0,0,0,0,0,0,0,0,0,0,0,0,0,0,0,0,0,0,0,0,0,0,0,0,0,0,0,0,0,0,0,0,0,0,0,0,0,0,0,0,0,0,0,0,0,0,0,0,0,0,0,0,0,0],"sum_hessian":[3.1871063E2,1.9586125E2,1.22849365E2,7.824483E1,1.1761643E2,3.1646793E1,9.120257E1,4.9588284E1,2.8656546E1,9.668469E1,2.0931738E1,1.7692303E1,1.3954492E1,8.7963135E1,3.2394357E0,4.709641E1,2.4918735E0,1.794149E1,1.0715056E1,5.108341E1,4.5601284E1,1.121343E1,9.718307E0,1.0715056E1,6.977246E0,9.219932E0,4.7345595E0,7.326108E1,1.4702054E1,1.2459368E0,1.9934988E0,4.5352097E1,1.7443115E0,1.2459368E0,1.2459368E0,1.2459368E0,1.6695553E1,7.973995E0,2.7410607E0,1.868905E1,3.2394356E1,3.93716E1,6.229684E0,9.967494E0,1.2459368E0,1.2459368E0,8.47237E0,4.983747E0,5.731309E0,5.731309E0,1.2459368E0,2.4918735E0,6.7280583E0,2.9902482E0,1.7443115E0,6.528709E1,7.973995E0,5.731309E0,8.970745E0],"tree_param":{"num_deleted":"0","num_feature":"11","num_nodes":"59","size_leaf_vector":"1"}},{"base_weights":[-3.2987568E-4,-5.8519405E-1,9.394162E-1,-1.148775E0,-2.0276323E-1,8.0986485E-2,1.2357612E0,-1.3918631E0,-6.9483334E-1,2.7856447E-2,-1.217161E0,-5.627185E-1,8.870218E-1,1.3758845E0,3.7661773E-1,-3.6335006E-1,-1.4432201E0,-1.0964307E0,1.6368436E-2,4.6408513E-1,-4.5744187E-1,-1.3027632E0,-2.792713E-3,6.42766E-1,-8.3199626E-1,1.3086501E0,-1.195253E-2,1.4346641E0,2.1780305E-1,-2.5154826E-1,1.1126664E0,-1.0835981E-1,4.3028634E-2,-1.4956962E-1,-3.4732442E-2,2.3265613E-2,-1.3111587E-1,4.1624725E-2,-9.4231546E-2,-8.00548E-3,8.401009E-2,-7.364224E-2,8.63939E-3,-8.328966E-2,-1.7356668E-1,1.0118196E-1,1.0634556E-2,-1.1256399E-1,5.1746693E-2,4.5723666E-2,1.5261148E-1,6.1856546E-2,-9.191708E-2,9.5747344E-2,1.5233515E-1,-7.68592E-2,7.55145E-2,9.4800666E-2,-1.17501974E-1,1.4195924E-1,3.429579E-2],"categories":[],"categories_nodes":[],"categories_segments":[],"categories_sizes":[],"default_left":[0,0,0,0,0,0,0,0,0,0,0,0,0,0,0,0,0,0,0,0,0,0,0,0,0,0,0,0,0,0,0,0,0,0,0,0,0,0,0,0,0,0,0,0,0,0,0,0,0,0,0,0,0,0,0,0,0,0,0,0,0],"id":1,"left_children":[1,3,5,7,9,11,13,15,17,19,21,23,25,27,29,31,33,35,37,39,41,43,-1,45,47,49,51,53,55,57,59,-1,-1,-1,-1,-1,-1,-1,-1,-1,-1,-1,-1,-1,-1,-1,-1,-1,-1,-1,-1,-1,-1,-1,-1,-1,-1,-1,-1,-1,-1],"loss_changes":[1.756087E2,4.2213448E1,3.1080162E1,7.7944336E0,2.7765047E1,1.7374313E1,1.0442215E1,2.1542892E0,8.497121E0,2.0865755E1,2.2011986E0,6.603325E0,5.636465E0,4.9903107E0,6.8193436E0,2.6088238E0,2.2388153E0,5.7241173E0,4.877174E0,1.0680863E1,7.146796E0,2.7205772E0,0E0,6.798476E-1,6.8105993E0,1.1729565E0,3.843663E0,1.671402E0,3.1997573E0,1.0470756E1,1.095252E0,0E0,0E0,0E0,0E0,0E0,0E0,0E0,0E0,0E0,0E0,0E0,0E0,0E0,0E0,0E0,0E0,0E0,0E0,0E0,0E0,0E0,0E0,0E0,0E0,0E0,0E0,0E0,0E0,0E0,0E0],"parents":[2147483647,0,0,1,1,2,2,3,3,4,4,5,5,6,6,7,7,8,8,9,9,10,10,11,11,12,12,13,13,14,14,15,15,16,16,17,17,18,18,19,19,20,20,21,21,23,23,24,24,25,25,26,26,27,27,28,28,29,29,30,30],"right_children":[2,4,6,8,10,12,14,16,18,20,22,24,26,28,30,32,34,36,38,40,42,44,-1,46,48,50,52,54,56,58,60,-1,-1,-1,-1,-1,-1,-1,-1,-1,-1,-1,-1,-1,-1,-1,-1,-1,-1,-1,-1,-1,-1,-1,-1,-1,-1,-1,-1,-1,-1],"split_conditions":[1.1922725E-1,-4.6118036E-1,-4.021673E-1,-5.847771E-1,1.0804977E0,1.0109661E0,4.7231838E-1,-1.2887815E0,-6.9723266E-1,6.804042E-2,3.0796041E0,-7.699311E-1,2.3563471E-1,1.5122991E0,1.1048334E0,-6.873526E-2,1.4623721E0,-3.788777E-1,1.0776282E-1,-6.7864436E-1,5.052731E-1,1.749495E0,-2.792713E-3,7.138967E-1,5.8574593E-1,-6.9003487E-1,-9.847944E-2,4.4776264E-1,-1.4326539E0,1.2237286E-1,2.4189749E0,-1.0835981E-1,4.3028634E-2,-1.4956962E-1,-3.4732442E-2,2.3265613E-2,-1.3111587E-1,4.1624725E-2,-9.4231546E-2,-8.00548E-3,8.401009E-2,-7.364224E-2,8.63939E-3,-8.328966E-2,-1.7356668E-1,1.0118196E-1,1.0634556E-2,-1.1256399E-1,5.1746693E-2,4.5723666E-2,1.5261148E-1,6.1856546E-2,-9.191708E-2,9.5747344E-2,1.5233515E-1,-7.68592E-2,7.55145E-2,9.4800666E-2,-1.17501974E-1,1.4195924E-1,3.429579E-2],"split_indices":[10,9,9,10,6,10,6,10,9,1,9,1,1,7,10,0,3,1,7,10,7,6,0,2,5,4,3,10,8,8,10,0,0,0,0,0,0,0,0,0,0,0,0,0,0,0,0,0,0,0,0,0,0,0,0,0,0,0,0,0,0],"split_type":[0,0,0,0,0,0,0,0,0,0,0,0,0,0,0,0,0,0,0,0,0,0,0,0,0,0,0,0,0,0,0,0,0,0,0,0,0,0,0,0,0,0,0,0,0,0,0,0,0,0,0,0,0,0,0,0,0,0,0,0,0],"sum_hessian":[3.1750687E2,1.9593886E2,1.21568016E2,7.839935E1,1.17539505E2,3.1524242E1,9.004377E1,4.97121E1,2.8687254E1,9.655957E1,2.097993E1,1.7694872E1,1.38293705E1,7.6900154E1,1.3143619E1,2.7482672E0,4.6963833E1,1.7988152E1,1.0699103E1,5.0873615E1,4.5685955E1,1.9482124E1,1.4978065E0,2.9776645E0,1.4717208E1,9.103853E0,4.7255177E0,7.295826E1,3.9418936E0,7.4466605E0,5.696958E0,1.2492124E0,1.4990549E0,4.446963E1,2.4942024E0,2.4903455E0,1.5497806E1,7.949206E0,2.7498975E0,2.111082E1,2.9762794E1,2.9961817E1,1.5724138E1,1.0744352E1,8.737772E0,1.2389984E0,1.738666E0,1.222328E1,2.493928E0,2.4834142E0,6.620439E0,2.9756265E0,1.749891E0,1.3283142E1,5.9675117E1,1.2383336E0,2.7035599E0,3.227583E0,4.2190776E0,3.4692492E0,2.227709E0],"tree_param":{"num_deleted":"0","num_feature":"11","num_nodes":"61","size_leaf_vector":"1"}},{"base_weights":[-6.0894723E-5,-7.830807E-1,5.9044117E-1,-9.235341E-1,2.6566362E-1,-1.5576069E-1,8.928204E-1,-7.85782E-1,-1.5534482E0,-6.390475E-1,1.0087149E0,-5.1585644E-1,8.22057E-1,1.013719E0,-5.4019487E-1,-1.2379247E0,-6.0318404E-1,-4.196951E-2,-1.669E-1,3.7434477E-2,-9.2033404E-1,1.3161587E0,-2.4644926E-2,1.1899598E-1,-6.379539E-1,-8.416286E-2,1.1895721E0,5.516431E-1,1.2670044E0,6.734189E-1,-1.3541528E0,-1.3421759E-1,2.1170616E-2,-1.2772712E-1,-4.0634874E-2,1.8202303E-2,-1.2036597E-1,1.1545278E-2,1.5219922E-1,-7.545823E-2,3.8642906E-2,-6.1959255E-2,9.152761E-2,1.4019008E-1,1.7262237E-2,7.433602E-2,-4.481029E-2,1.2972675E-1,-3.1363394E-2,1.2434615E-1,-2.4426281E-2,-1.5418045E-1,-2.9246027E-2],"categories":[],"categories_nodes":[],"categories_segments":[],"categories_sizes":[],"default_left":[0,0,0,0,0,0,0,0,0,0,0,0,0,0,0,0,0,0,0,0,0,0,0,0,0,0,0,0,0,0,0,0,0,0,0,0,0,0,0,0,0,0,0,0,0,0,0,0,0,0,0,0,0],"id":2,"left_children":[1,3,5,7,9,11,13,15,17,19,21,23,25,27,29,31,33,-1,-1,-1,35,37,-1,-1,39,41,43,45,47,49,51,-1,-1,-1,-1,-1,-1,-1,-1,-1,-1,-1,-1,-1,-1,-1,-1,-1,-1,-1,-1,-1,-1],"loss_changes":[1.463757E2,2.0292961E1,4.086026E1,9.213623E0,1.1972749E1,1.9048616E1,2.2823761E1,7.566742E0,1.9922943E0,2.6851342E0,4.0443783E0,8.938646E0,4.9699535E0,1.3219383E1,1.1438337E1,4.518242E0,9.256916E0,0E0,0E0,0E0,2.3167658E0,1.7769957E0,0E0,0E0,4.7479277E0,3.3245382E0,2.018571E0,8.743051E0,4.0444794E0,2.8909178E0,8.859873E-1,0E0,0E0,0E0,0E0,0E0,0E0,0E0,0E0,0E0,0E0,0E0,0E0,0E0,0E0,0E0,0E0,0E0,0E0,0E0,0E0,0E0,0E0],"parents":[2147483647,0,0,1,1,2,2,3,3,4,4,5,5,6,6,7,7,8,8,9,9,10,10,11,11,12,12,13,13,14,14,15,15,16,16,20,20,21,21,24,24,25,25,26,26,27,27,28,28,29,29,30,30],"right_children":[2,4,6,8,10,12,14,16,18,20,22,24,26,28,30,32,34,-1,-1,-1,36,38,-1,-1,40,42,44,46,48,50,52,-1,-1,-1,-1,-1,-1,-1,-1,-1,-1,-1,-1,-1,-1,-1,-1,-1,-1,-1,-1,-1,-1],"split_conditions":[-3.970426E-1,1.0228726E0,-4.021673E-1,1.5974501E0,-4.808883E-2,1.0109661E0,1.0804977E0,-6.9723266E-1,-1.4326539E0,1.1952317E0,6.813767E-1,-1.0492549E0,-9.8798394E-1,3.5389537E-1,-1.6942723E-1,1.3541784E0,-6.551405E-1,-4.196951E-2,-1.669E-1,3.7434477E-2,-7.699311E-1,7.652471E-1,-2.4644926E-2,1.1899598E-1,1.2551613E0,-2.8621414E-1,2.2078563E-1,8.9988625E-1,2.918823E0,9.5972806E-2,8.2323164E-1,-1.3421759E-1,2.1170616E-2,-1.2772712E-1,-4.0634874E-2,1.8202303E-2,-1.2036597E-1,1.1545278E-2,1.5219922E-1,-7.545823E-2,3.8642906E-2,-6.1959255E-2,9.152761E-2,1.4019008E-1,1.7262237E-2,7.433602E-2,-4.481029E-2,1.2972675E-1,-3.1363394E-2,1.2434615E-1,-2.4426281E-2,-1.5418045E-1,-2.9246027E-2],"split_indices":[10,0,9,6,9,10,6,9,8,0,5,1,0,10,3,6,8,0,0,0,1,2,0,0,5,4,3,8,0,1,10,0,0,0,0,0,0,0,0,0,0,0,0,0,0,0,0,0,0,0,0,0,0],"split_type":[0,0,0,0,0,0,0,0,0,0,0,0,0,0,0,0,0,0,0,0,0,0,0,0,0,0,0,0,0,0,0,0,0,0,0,0,0,0,0,0,0,0,0,0,0,0,0,0,0,0,0,0,0],"sum_hessian":[3.1457373E2,1.3510077E2,1.7947296E2,1.1924962E2,1.5851151E1,5.1894432E1,1.2757854E2,9.96953E1,1.9554321E1,7.211126E0,8.640026E0,3.8272472E1,1.362196E1,1.1792243E2,9.656105E0,2.7017063E1,7.267823E1,2.2370696E0,1.7317251E1,1.4948375E0,5.716288E0,6.9010634E0,1.7389624E0,1.9722534E0,3.630022E1,4.1528473E0,9.469112E0,4.2877586E1,7.5044846E1,3.945706E0,5.710399E0,2.527362E1,1.7434433E0,1.5185287E1,5.7492947E1,1.2418957E0,4.4743924E0,1.238328E0,5.6627355E0,3.2826256E1,3.4739661E0,2.9516299E0,1.2012178E0,7.520395E0,1.9487171E0,3.6193382E1,6.684203E0,7.381093E1,1.2339147E0,2.2148743E0,1.7308316E0,4.4684043E0,1.2419945E0],"tree_param":{"num_deleted":"0","num_feature":"11","num_nodes":"53","size_leaf_vector":"1"}},{"base_weights":[-4.7995363E-5,-4.8587966E-1,8.0133504E-1,-9.6136373E-1,-1.6607647E-1,8.226555E-2,1.0564845E0,-1.1794565E0,-5.6025046E-1,2.7580785E-2,-1.02825E0,8.807188E-1,-4.0993774E-1,1.185789E0,2.9076827E-1,-2.7062103E-1,-1.226425E0,-9.2237204E-1,6.7365006E-2,4.058835E-1,-3.8986576E-1,-1.6744055E-1,-1.131052E0,1.1187077E0,-7.101613E-2,-1.0721078E0,1.142783E-1,1.2421488E0,1.2368421E-1,-2.7807206E-1,9.7524726E-1,-9.789879E-2,4.7087666E-2,-5.115931E-2,-1.3166702E-1,2.2293657E-2,-1.110751E-1,3.7993267E-2,-9.693972E-2,-1.4749348E-2,7.253566E-2,-5.3534847E-2,4.8149522E-2,7.6630615E-2,-1.02450624E-1,-1.22623935E-1,-5.312028E-4,4.88904E-2,1.3907836E-1,2.619502E-2,-1.3126652E-1,8.024498E-2,-3.7139405E-2,1.3250785E-1,7.0943184E-2,-7.377029E-2,6.240791E-2,8.3999485E-2,-1.1161395E-1,1.2682657E-1,2.7169613E-2],"categories":[],"categories_nodes":[],"categories_segments":[],"categories_sizes":[],"default_left":[0,0,0,0,0,0,0,0,0,0,0,0,0,0,0,0,0,0,0,0,0,0,0,0,0,0,0,0,0,0,0,0,0,0,0,0,0,0,0,0,0,0,0,0,0,0,0,0,0,0,0,0,0,0,0,0,0,0,0,0,0],"id":3,"left_children":[1,3,5,7,9,11,13,15,17,19,21,23,25,27,29,31,33,35,37,39,41,43,45,47,-1,49,51,53,55,57,59,-1,-1,-1,-1,-1,-1,-1,-1,-1,-1,-1,-1,-1,-1,-1,-1,-1,-1,-1,-1,-1,-1,-1,-1,-1,-1,-1,-1,-1,-1],"loss_changes":[1.21732834E2,2.944019E1,2.15643E1,6.168541E0,1.9661911E1,1.293366E1,8.27092E0,1.7881851E0,6.7442303E0,1.5475943E1,1.7215405E0,5.533841E0,7.229286E0,4.283287E0,5.6819096E0,2.4168894E0,2.3546677E0,4.284787E0,4.156267E0,9.189265E0,6.167988E0,3.5680773E0,2.0419502E0,1.2524309E0,0E0,3.2779188E0,4.4192867E0,2.1646042E0,2.549E0,8.777985E0,1.0013967E0,0E0,0E0,0E0,0E0,0E0,0E0,0E0,0E0,0E0,0E0,0E0,0E0,0E0,0E0,0E0,0E0,0E0,0E0,0E0,0E0,0E0,0E0,0E0,0E0,0E0,0E0,0E0,0E0,0E0,0E0],"parents":[2147483647,0,0,1,1,2,2,3,3,4,4,5,5,6,6,7,7,8,8,9,9,10,10,11,11,12,12,13,13,14,14,15,15,16,16,17,17,18,18,19,19,20,20,21,21,22,22,23,23,25,25,26,26,27,27,28,28,29,29,30,30],"right_children":[2,4,6,8,10,12,14,16,18,20,22,24,26,28,30,32,34,36,38,40,42,44,46,48,-1,50,52,54,56,58,60,-1,-1,-1,-1,-1,-1,-1,-1,-1,-1,-1,-1,-1,-1,-1,-1,-1,-1,-1,-1,-1,-1,-1,-1,-1,-1,-1,-1,-1,-1],"split_conditions":[1.1922725E-1,-4.6118036E-1,-4.021673E-1,-5.847771E-1,1.0804977E0,-4.3474248E-1,4.7231838E-1,-1.2887815E0,-6.9723266E-1,6.804042E-2,-4.021673E-1,2.6684844E0,-6.574541E-1,1.5122991E0,1.1048334E0,-6.873526E-2,-7.0071876E-1,-3.788777E-1,3.25917E-2,-4.808883E-2,-1.1544087E-1,1.0638998E0,3.0796041E0,1.0109661E0,-7.101613E-2,1.2237286E-1,-1.2887714E0,1.8136775E-1,-1.4326539E0,1.2237286E-1,2.4189749E0,-9.789879E-2,4.7087666E-2,-5.115931E-2,-1.3166702E-1,2.2293657E-2,-1.110751E-1,3.7993267E-2,-9.693972E-2,-1.4749348E-2,7.253566E-2,-5.3534847E-2,4.8149522E-2,7.6630615E-2,-1.02450624E-1,-1.22623935E-1,-5.312028E-4,4.88904E-2,1.3907836E-1,2.619502E-2,-1.3126652E-1,8.024498E-2,-3.7139405E-2,1.3250785E-1,7.0943184E-2,-7.377029E-2,6.240791E-2,8.3999485E-2,-1.1161395E-1,1.2682657E-1,2.7169613E-2],"split_indices":[10,9,9,10,6,1,6,10,9,1,9,3,5,7,10,0,0,1,4,9,10,5,9,10,0,8,2,4,8,8,10,0,0,0,0,0,0,0,0,0,0,0,0,0,0,0,0,0,0,0,0,0,0,0,0,0,0,0,0,0,0],"split_type":[0,0,0,0,0,0,0,0,0,0,0,0,0,0,0,0,0,0,0,0,0,0,0,0,0,0,0,0,0,0,0,0,0,0,0,0,0,0,0,0,0,0,0,0,0,0,0,0,0,0,0,0,0,0,0,0,0,0,0,0,0],"sum_hessian":[3.1066678E2,1.9365735E2,1.1700943E2,7.7067345E1,1.16590004E2,3.0991291E1,8.6018135E1,4.8666176E1,2.8401167E1,9.599589E1,2.059412E1,1.1517781E1,1.9473509E1,7.3121666E1,1.2896472E1,2.723747E0,4.5942432E1,1.7712032E1,1.0689135E1,5.0373547E1,4.5622337E1,2.4775126E0,1.8116608E1,1.0277162E1,1.2406195E0,8.142741E0,1.1330769E1,6.927607E1,3.8455954E0,7.367453E0,5.529019E0,1.2291919E0,1.494555E0,5.897474E0,4.0044956E1,2.4758546E0,1.5236177E1,8.699815E0,1.9893194E0,1.8634325E1,3.1739222E1,3.9425465E1,6.1968713E0,1.2363945E0,1.2411181E0,1.6621866E1,1.4947417E0,3.944151E0,6.333011E0,1.2303985E0,6.9123425E0,4.4181886E0,6.91258E0,5.8657314E1,1.0618754E1,1.238824E0,2.6067712E0,3.1554556E0,4.2119975E0,3.3366795E0,2.1923397E0],"tree_param":{"num_deleted":"0","num_feature":"11","num_nodes":"61","size_leaf_vector":"1"}},{"base_weights":[-8.064918E-5,-6.591965E-1,5.046111E-1,-7.8111756E-1,2.5107965E-1,6.431747E-2,8.8897943E-1,-6.577096E-1,-1.3622841E0,-5.442246E-1,9.092203E-1,-2.1317345E-1,7.894499E-1,9.7045416E-1,-1.2433951E-1,-5.4820395E-1,-1.4427242E0,-1.5562708E-2,-1.4484482E0,3.729538E-2,-8.073021E-1,1.1857674E0,-2.0098936E-2,-7.6897067E-1,6.763457E-2,1.02019124E-1,1.1999367E0,-7.5580776E-2,1.0176469E0,-2.5941584E-2,-8.623044E-2,-6.3226275E-2,-1.5662558E-1,-2.125995E-2,-1.5263207E-1,1.8925976E-2,-1.07177906E-1,6.9529125E-3,1.3870628E-1,3.7727706E-2,-1.0607976E-1,9.4601564E-2,-1.9021284E-2,-7.2203234E-2,5.5439588E-2,1.2972264E-1,7.3388177E-3,7.94103E-2,1.3905115E-1],"categories":[],"categories_nodes":[],"categories_segments":[],"categories_sizes":[],"default_left":[0,0,0,0,0,0,0,0,0,0,0,0,0,0,0,0,0,0,0,0,0,0,0,0,0,0,0,0,0,0,0,0,0,0,0,0,0,0,0,0,0,0,0,0,0,0,0,0,0],"id":4,"left_children":[1,3,5,7,9,11,13,15,17,19,21,23,25,27,-1,29,31,-1,33,-1,35,37,-1,39,41,43,45,-1,47,-1,-1,-1,-1,-1,-1,-1,-1,-1,-1,-1,-1,-1,-1,-1,-1,-1,-1,-1,-1],"loss_changes":[1.0234969E2,1.5004089E1,2.9432457E1,7.5605927E0,9.140115E0,1.672765E1,1.7356491E1,7.73592E0,1.824749E0,2.2566462E0,3.1281195E0,9.464193E0,6.364704E0,8.109131E0,0E0,7.818638E0,1.6406631E-1,0E0,1.4351463E0,0E0,1.9461112E0,1.6292467E0,0E0,7.198329E0,9.462275E0,4.011825E0,1.4722214E0,0E0,6.241249E0,0E0,0E0,0E0,0E0,0E0,0E0,0E0,0E0,0E0,0E0,0E0,0E0,0E0,0E0,0E0,0E0,0E0,0E0,0E0,0E0],"parents":[2147483647,0,0,1,1,2,2,3,3,4,4,5,5,6,6,7,7,8,8,9,9,10,10,11,11,12,12,13,13,15,15,16,16,18,18,20,20,21,21,23,23,24,24,25,25,26,26,28,28],"right_children":[2,4,6,8,10,12,14,16,18,20,22,24,26,28,-1,30,32,-1,34,-1,36,38,-1,40,42,44,46,-1,48,-1,-1,-1,-1,-1,-1,-1,-1,-1,-1,-1,-1,-1,-1,-1,-1,-1,-1,-1,-1],"split_conditions":[-3.970426E-1,1.0228726E0,-1.0710191E-1,1.5974501E0,-4.808883E-2,1.0109661E0,1.810313E0,5.057952E-1,-3.7454963E-1,1.1952317E0,6.813767E-1,-7.5308484E-1,-9.8798394E-1,-2.015789E0,-1.2433951E-1,4.5909378E-1,-3.131126E-1,-1.5562708E-2,-1.691825E0,3.729538E-2,-7.699311E-1,7.652471E-1,-2.0098936E-2,-7.699311E-1,-1.2374209E0,-6.9003487E-1,1.4978459E0,-7.5580776E-2,9.170989E-1,-2.5941584E-2,-8.623044E-2,-6.3226275E-2,-1.5662558E-1,-2.125995E-2,-1.5263207E-1,1.8925976E-2,-1.07177906E-1,6.9529125E-3,1.3870628E-1,3.7727706E-2,-1.0607976E-1,9.4601564E-2,-1.9021284E-2,-7.2203234E-2,5.5439588E-2,1.2972264E-1,7.3388177E-3,7.94103E-2,1.3905115E-1],"split_indices":[10,0,9,6,9,10,6,0,7,0,5,5,0,8,0,1,2,0,8,0,1,2,0,1,2,4,3,0,10,0,0,0,0,0,0,0,0,0,0,0,0,0,0,0,0,0,0,0,0],"split_type":[0,0,0,0,0,0,0,0,0,0,0,0,0,0,0,0,0,0,0,0,0,0,0,0,0,0,0,0,0,0,0,0,0,0,0,0,0,0,0,0,0,0,0,0,0,0,0,0,0],"sum_hessian":[3.0567957E2,1.3242691E2,1.7325264E2,1.16910034E2,1.55168705E1,8.129575E1,9.1956894E1,9.819128E1,1.8718756E1,7.1046376E0,8.412233E0,5.9306564E1,2.1989191E1,8.909751E1,2.8593836E0,8.766131E1,1.0529975E1,1.4345949E0,1.728416E1,1.4905192E0,5.6141186E0,6.68018E0,1.7320532E0,1.932285E1,3.9983715E1,8.688066E0,1.3301125E1,1.971375E0,8.712614E1,4.6622166E1,4.103914E1,2.201921E0,8.328054E0,1.2456486E0,1.6038513E1,1.2370925E0,4.377026E0,1.226165E0,5.454015E0,3.8617449E0,1.5461104E1,8.467954E0,3.1515762E1,2.8678646E0,5.820201E0,1.2104285E1,1.1968396E0,5.642645E1,3.0699686E1],"tree_param":{"num_deleted":"0","num_feature":"11","num_nodes":"49","size_leaf_vector":"1"}},{"base_weights":[-7.728863E-4,-4.0974358E-1,6.939946E-1,-8.3184993E-1,-1.3032109E-1,5.6028727E-2,9.282249E-1,2.9295096E-1,-8.884703E-1,3.3311073E-2,-9.091584E-1,7.825934E-1,-3.8028732E-1,1.0466286E0,1.9038413E-1,-4.24333E-2,1.0247771E-1,-1.0992002E0,-5.7313937E-1,2.2686721E-1,-6.287749E-1,-1.1076238E-1,-1.0134598E0,1.0126364E0,-6.71751E-2,-9.469344E-1,6.697179E-2,1.0996871E0,8.11263E-2,-2.9936755E-1,8.097368E-1,-2.2931288E-3,-1.1635106E-1,-3.521812E-4,-1.12433694E-1,-9.002815E-3,8.0881834E-2,6.2127914E-2,-1.14434235E-1,7.732798E-2,-9.506247E-2,-1.10808216E-1,1.0558544E-3,1.2361306E-1,3.7068278E-2,2.8281098E-2,-1.17613375E-1,-4.6667617E-2,6.049514E-2,1.1938305E-1,5.501156E-2,-6.786309E-2,5.4217525E-2,7.443077E-2,-1.1385335E-1,1.14933096E-1,-1.5161439E-3],"categories":[],"categories_nodes":[],"categories_segments":[],"categories_sizes":[],"default_left":[0,0,0,0,0,0,0,0,0,0,0,0,0,0,0,0,0,0,0,0,0,0,0,0,0,0,0,0,0,0,0,0,0,0,0,0,0,0,0,0,0,0,0,0,0,0,0,0,0,0,0,0,0,0,0,0,0],"id":5,"left_children":[1,3,5,7,9,11,13,15,17,19,21,23,25,27,29,-1,-1,31,33,35,37,39,41,43,-1,45,47,49,51,53,55,-1,-1,-1,-1,-1,-1,-1,-1,-1,-1,-1,-1,-1,-1,-1,-1,-1,-1,-1,-1,-1,-1,-1,-1,-1,-1],"loss_changes":[8.6011734E1,2.2365572E1,1.6708775E1,5.081936E0,1.479269E1,1.0183995E1,6.962578E0,2.7342591E0,4.1762276E0,1.2533386E1,1.5654469E0,4.704401E0,5.172226E0,3.5182495E0,4.0517535E0,0E0,0E0,2.8987427E0,9.748944E0,1.4005842E1,1.497813E1,3.297037E0,1.7263794E0,1.0890341E0,0E0,2.8575668E0,3.7847662E0,2.7927322E0,2.0310624E0,7.628913E0,1.6464992E0,0E0,0E0,0E0,0E0,0E0,0E0,0E0,0E0,0E0,0E0,0E0,0E0,0E0,0E0,0E0,0E0,0E0,0E0,0E0,0E0,0E0,0E0,0E0,0E0,0E0,0E0],"parents":[2147483647,0,0,1,1,2,2,3,3,4,4,5,5,6,6,7,7,8,8,9,9,10,10,11,11,12,12,13,13,14,14,17,17,18,18,19,19,20,20,21,21,22,22,23,23,25,25,26,26,27,27,28,28,29,29,30,30],"right_children":[2,4,6,8,10,12,14,16,18,20,22,24,26,28,30,-1,-1,32,34,36,38,40,42,44,-1,46,48,50,52,54,56,-1,-1,-1,-1,-1,-1,-1,-1,-1,-1,-1,-1,-1,-1,-1,-1,-1,-1,-1,-1,-1,-1,-1,-1,-1,-1],"split_conditions":[1.1922725E-1,-4.6118036E-1,-4.021673E-1,-9.9339014E-1,1.1109067E0,-4.3474248E-1,5.331363E-1,-8.1944525E-1,-6.9723266E-1,2.238752E-1,-4.021673E-1,2.6684844E0,-6.574541E-1,1.5122991E0,1.1048334E0,-4.24333E-2,1.0247771E-1,-4.562439E-1,1.0776282E-1,1.8796347E-1,-8.487156E-1,1.0638998E0,3.0796041E0,-7.699311E-1,-6.71751E-2,1.2237286E-1,7.293644E-1,1.8136775E-1,-1.4326539E0,1.2237286E-1,2.4189749E0,-2.2931288E-3,-1.1635106E-1,-3.521812E-4,-1.12433694E-1,-9.002815E-3,8.0881834E-2,6.2127914E-2,-1.14434235E-1,7.732798E-2,-9.506247E-2,-1.10808216E-1,1.0558544E-3,1.2361306E-1,3.7068278E-2,2.8281098E-2,-1.17613375E-1,-4.6667617E-2,6.049514E-2,1.1938305E-1,5.501156E-2,-6.786309E-2,5.4217525E-2,7.443077E-2,-1.1385335E-1,1.14933096E-1,-1.5161439E-3],"split_indices":[10,9,9,1,6,1,6,10,9,4,9,3,5,7,10,0,0,4,7,9,5,5,9,1,0,8,10,4,8,8,10,0,0,0,0,0,0,0,0,0,0,0,0,0,0,0,0,0,0,0,0,0,0,0,0,0,0],"split_type":[0,0,0,0,0,0,0,0,0,0,0,0,0,0,0,0,0,0,0,0,0,0,0,0,0,0,0,0,0,0,0,0,0,0,0,0,0,0,0,0,0,0,0,0,0,0,0,0,0,0,0,0,0,0,0,0,0],"sum_hessian":[3.007087E2,1.8954465E2,1.1116408E2,7.470913E1,1.1483552E2,3.0186169E1,8.0977905E1,3.380442E0,7.132869E1,9.5688736E1,1.9146782E1,1.1028157E1,1.915801E1,6.941945E1,1.1558459E1,1.9193771E0,1.4610649E0,4.12657E1,3.0062988E1,7.455148E1,2.1137253E1,2.450544E0,1.6696238E1,9.784238E0,1.2439195E0,7.9582505E0,1.119976E1,6.567153E1,3.7479177E0,6.743051E0,4.8154078E0,2.4032083E0,3.886249E1,1.5279386E1,1.4783603E1,4.8815056E1,2.5736425E1,6.112277E0,1.5024976E1,1.2324941E0,1.21805E0,1.5208805E1,1.4874315E0,6.570991E0,3.213247E0,1.2134895E0,6.744761E0,5.689053E0,5.510707E0,5.5066223E1,1.0605308E1,1.2372084E0,2.5107093E0,3.0556996E0,3.6873515E0,3.1325138E0,1.6828941E0],"tree_param":{"num_deleted":"0","num_feature":"11","num_nodes":"57","size_leaf_vector":"1"}},{"base_weights":[-5.548026E-4,-5.644145E-1,4.3762976E-1,-6.737953E-1,2.5243258E-1,2.218057E-1,1.072496E0,-5.60887E-1,-1.2295469E0,-4.6107748E-1,8.4354615E-1,-1.9827755E-1,5.719543E-1,5.162634E-1,1.2400228E0,-4.6012765E-1,-1.2948784E0,-9.846376E-3,-1.3163047E0,3.5634473E-2,-7.050893E-1,1.0900499E0,-1.3470078E-2,-6.251942E-1,1.8314851E-2,7.1550983E-1,-6.4804864E-1,1.2284136E-1,-1.7884067E-1,1.3102582E-1,5.9997435E-3,-1.9970333E-2,-7.485203E-2,-5.4425716E-2,-1.4129768E-1,-1.3924251E-1,-1.8836617E-2,1.75691E-2,-9.4614886E-2,6.090707E-3,1.2836663E-1,3.7554722E-2,-9.057479E-2,8.736583E-2,-2.3757856E-2,8.428712E-2,-2.4416434E-4,2.8785935E-2,-1.3147888E-1,-6.90981E-2,5.2021105E-2],"categories":[],"categories_nodes":[],"categories_segments":[],"categories_sizes":[],"default_left":[0,0,0,0,0,0,0,0,0,0,0,0,0,0,0,0,0,0,0,0,0,0,0,0,0,0,0,0,0,0,0,0,0,0,0,0,0,0,0,0,0,0,0,0,0,0,0,0,0,0,0],"id":6,"left_children":[1,3,5,7,9,11,13,15,17,19,21,23,25,27,29,31,33,-1,35,-1,37,39,-1,41,43,45,47,-1,49,-1,-1,-1,-1,-1,-1,-1,-1,-1,-1,-1,-1,-1,-1,-1,-1,-1,-1,-1,-1,-1,-1],"loss_changes":[7.3374855E1,1.1773075E1,2.2659573E1,6.513958E0,7.1639395E0,1.8643257E1,3.2862244E0,6.5967693E0,1.6903248E0,1.8319365E0,2.3505363E0,5.3755465E0,1.2541903E1,5.895794E0,2.546154E0,6.3895855E0,2.2275734E-1,0E0,1.2096863E0,0E0,1.5332944E0,1.3981867E0,0E0,5.8301105E0,8.84382E0,5.6876335E0,5.236537E0,0E0,2.7493997E0,0E0,0E0,0E0,0E0,0E0,0E0,0E0,0E0,0E0,0E0,0E0,0E0,0E0,0E0,0E0,0E0,0E0,0E0,0E0,0E0,0E0,0E0],"parents":[2147483647,0,0,1,1,2,2,3,3,4,4,5,5,6,6,7,7,8,8,9,9,10,10,11,11,12,12,13,13,14,14,15,15,16,16,18,18,20,20,21,21,23,23,24,24,25,25,26,26,28,28],"right_children":[2,4,6,8,10,12,14,16,18,20,22,24,26,28,30,32,34,-1,36,-1,38,40,-1,42,44,46,48,-1,50,-1,-1,-1,-1,-1,-1,-1,-1,-1,-1,-1,-1,-1,-1,-1,-1,-1,-1,-1,-1,-1,-1],"split_conditions":[-3.970426E-1,1.0228726E0,1.1048334E0,1.5974501E0,-4.808883E-2,-1.6611499E-1,-9.8798394E-1,5.057952E-1,-3.7454963E-1,1.1952317E0,6.813767E-1,-7.5308484E-1,9.436574E-1,-1.5541865E-1,2.6684844E0,4.5909378E-1,-3.131126E-1,-9.846376E-3,2.902565E0,3.5634473E-2,-7.699311E-1,7.652471E-1,-1.3470078E-2,-7.699311E-1,-1.2374209E0,2.4512891E-1,1.2237286E-1,1.2284136E-1,-4.349902E-1,1.3102582E-1,5.9997435E-3,-1.9970333E-2,-7.485203E-2,-5.4425716E-2,-1.4129768E-1,-1.3924251E-1,-1.8836617E-2,1.75691E-2,-9.4614886E-2,6.090707E-3,1.2836663E-1,3.7554722E-2,-9.057479E-2,8.736583E-2,-2.3757856E-2,8.428712E-2,-2.4416434E-4,2.8785935E-2,-1.3147888E-1,-6.90981E-2,5.2021105E-2],"split_indices":[10,0,10,6,9,9,0,0,7,0,5,5,6,1,3,1,2,0,9,0,1,2,0,1,2,4,8,0,4,0,0,0,0,0,0,0,0,0,0,0,0,0,0,0,0,0,0,0,0,0,0],"split_type":[0,0,0,0,0,0,0,0,0,0,0,0,0,0,0,0,0,0,0,0,0,0,0,0,0,0,0,0,0,0,0,0,0,0,0,0,0,0,0,0,0,0,0,0,0,0,0,0,0,0,0],"sum_hessian":[2.949748E2,1.2886374E2,1.6611104E2,1.1380031E2,1.5063424E1,1.2497494E2,4.1136105E1,9.6254234E1,1.7546076E1,6.924779E0,8.138645E0,5.701098E1,6.796396E1,1.0466449E1,3.0669657E1,8.606629E1,1.0187944E1,1.4020557E0,1.614402E1,1.4860978E0,5.438681E0,6.4093065E0,1.7293391E0,1.8553806E1,3.8457172E1,6.1178696E1,6.7852664E0,4.790863E0,5.6755857E0,2.8842577E1,1.8270799E0,4.6115517E1,3.995077E1,2.1474547E0,8.040489E0,1.4903734E1,1.2402856E0,1.2269263E0,4.211755E0,1.2230295E0,5.186277E0,3.9884224E0,1.4565385E1,8.299915E0,3.0157257E1,5.181326E1,9.365436E0,3.0592427E0,3.7260237E0,3.282385E0,2.3932009E0],"tree_param":{"num_deleted":"0","num_feature":"11","num_nodes":"51","size_leaf_vector":"1"}},{"base_weights":[-7.2755455E-4,-3.4779695E-1,6.0825664E-1,-9.012252E-1,-1.8007088E-1,3.4578405E-2,8.263504E-1,2.2902925E-1,-9.8001087E-1,-7.083827E-2,-1.0980785E0,8.79847E-1,-2.6430458E-1,9.379841E-1,1.5829131E-1,-5.6281377E-2,1.0042013E-1,2.9172436E-3,-1.0417929E0,2.0247062E-1,-3.6009753E-1,-1.219998E0,1.6471485E-3,1.126343E-1,-2.9764337E-2,-5.0282484E-1,6.4053875E-1,9.918878E-1,1.6283296E-2,-2.8406924E-1,7.3185027E-1,5.1158454E-2,-4.9655452E-2,-7.2144106E-2,-1.3264473E-1,-3.162688E-2,4.1652035E-2,-4.536748E-2,3.1268608E-2,-3.535716E-2,-1.2672111E-1,1.5651014E-2,-7.952664E-2,1.15956165E-1,-2.702111E-2,1.0853665E-1,4.737816E-2,-6.663588E-2,4.6154734E-2,6.712739E-2,-1.04042925E-1,1.06947236E-1,-4.4589336E-3],"categories":[],"categories_nodes":[],"categories_segments":[],"categories_sizes":[],"default_left":[0,0,0,0,0,0,0,0,0,0,0,0,0,0,0,0,0,0,0,0,0,0,0,0,0,0,0,0,0,0,0,0,0,0,0,0,0,0,0,0,0,0,0,0,0,0,0,0,0,0,0,0,0],"id":7,"left_children":[1,3,5,7,9,11,13,15,17,19,21,23,25,27,29,-1,-1,31,33,35,37,39,-1,-1,-1,41,43,45,47,49,51,-1,-1,-1,-1,-1,-1,-1,-1,-1,-1,-1,-1,-1,-1,-1,-1,-1,-1,-1,-1,-1,-1],"loss_changes":[6.156211E1,1.7059326E1,1.3200779E1,4.0446625E0,1.4324745E1,7.854324E0,5.5618095E0,2.7786782E0,2.450016E0,1.0304836E1,2.0860844E0,2.6897135E0,5.298323E0,3.233242E0,3.2945926E0,0E0,0E0,1.1128049E0,2.5004387E0,7.5919228E0,4.123109E0,1.13111496E-1,0E0,0E0,0E0,3.750823E0,2.7948904E0,2.4775124E0,1.7149554E0,6.1819715E0,1.5096445E0,0E0,0E0,0E0,0E0,0E0,0E0,0E0,0E0,0E0,0E0,0E0,0E0,0E0,0E0,0E0,0E0,0E0,0E0,0E0,0E0,0E0,0E0],"parents":[2147483647,0,0,1,1,2,2,3,3,4,4,5,5,6,6,7,7,8,8,9,9,10,10,11,11,12,12,13,13,14,14,17,17,18,18,19,19,20,20,21,21,25,25,26,26,27,27,28,28,29,29,30,30],"right_children":[2,4,6,8,10,12,14,16,18,20,22,24,26,28,30,-1,-1,32,34,36,38,40,-1,-1,-1,42,44,46,48,50,52,-1,-1,-1,-1,-1,-1,-1,-1,-1,-1,-1,-1,-1,-1,-1,-1,-1,-1,-1,-1,-1,-1],"split_conditions":[1.1922725E-1,-6.9723266E-1,-4.021673E-1,-9.9339014E-1,1.5974501E0,-7.699311E-1,5.331363E-1,7.138967E-1,-4.562439E-1,1.2390518E-1,3.0796041E0,2.2078563E-1,5.8574593E-1,1.5122991E0,1.1048334E0,-5.6281377E-2,1.0042013E-1,-7.440403E-1,-3.6446303E-1,-8.6637884E-1,-1.1544087E-1,-6.582015E-1,1.6471485E-3,1.126343E-1,-2.9764337E-2,3.167512E-1,1.0294718E0,1.8136775E-1,-1.4326539E0,1.2237286E-1,2.4189749E0,5.1158454E-2,-4.9655452E-2,-7.2144106E-2,-1.3264473E-1,-3.162688E-2,4.1652035E-2,-4.536748E-2,3.1268608E-2,-3.535716E-2,-1.2672111E-1,1.5651014E-2,-7.952664E-2,1.15956165E-1,-2.702111E-2,1.0853665E-1,4.737816E-2,-6.663588E-2,4.6154734E-2,6.712739E-2,-1.04042925E-1,1.06947236E-1,-4.4589336E-3],"split_indices":[10,9,9,1,6,1,6,2,4,1,9,3,5,7,10,0,0,6,2,10,10,1,0,0,0,8,8,4,8,8,10,0,0,0,0,0,0,0,0,0,0,0,0,0,0,0,0,0,0,0,0,0,0],"split_type":[0,0,0,0,0,0,0,0,0,0,0,0,0,0,0,0,0,0,0,0,0,0,0,0,0,0,0,0,0,0,0,0,0,0,0,0,0,0,0,0,0,0,0,0,0,0,0,0,0,0,0,0,0],"sum_hessian":[2.8926602E2,1.8452902E2,1.04737015E2,4.1900642E1,1.4262837E2,2.9168955E1,7.556806E1,2.6061385E0,3.9294502E1,1.2842447E2,1.4203905E1,7.111943E0,2.2057013E1,6.44023E1,1.1165767E1,1.424724E0,1.1814145E0,2.380141E0,3.691436E1,6.61871E1,6.223737E1,1.2718077E1,1.4858289E0,5.916764E0,1.195179E0,1.7807247E1,4.2497644E0,6.0772022E1,3.6302738E0,6.5888243E0,4.576942E0,1.1672006E0,1.2129405E0,1.9031097E1,1.7883265E1,1.9193943E1,4.699316E1,5.492372E1,7.3136477E0,1.0958846E0,1.1622191E1,5.6142483E0,1.2192999E1,2.5330322E0,1.7167323E0,5.05557E1,1.0216322E1,1.2371026E0,2.393171E0,2.9611497E0,3.6276746E0,2.9268456E0,1.6500964E0],"tree_param":{"num_deleted":"0","num_feature":"11","num_nodes":"53","size_leaf_vector":"1"}},{"base_weights":[-5.3372735E-4,-4.8155713E-1,3.7878424E-1,-5.807705E-1,2.570043E-1,1.822721E-1,9.841418E-1,-4.9232438E-1,-1.2238576E0,-3.9975634E-1,7.98655E-1,-3.1043926E-1,4.1126812E-1,4.5127237E-1,1.1517278E0,-3.8380432E-1,-1.0760044E0,-4.810698E-2,-1.3250975E-1,-4.159107E-2,-1.08066E-1,1.031519E0,-1.0915584E-2,7.9479806E-2,-3.9968678E-1,5.2215844E-1,-8.173902E-1,1.14218034E-1,-1.9161178E-1,1.2237186E0,3.8521457E-3,-4.7803953E-2,3.640489E-2,-3.1228594E-3,-1.1772003E-1,-9.3115024E-2,5.1718175E-2,7.483457E-3,1.2167777E-1,-7.140161E-2,-1.4112907E-2,5.744017E-2,-1.3080935E-1,5.384755E-3,-1.1295803E-1,-6.51517E-2,4.622318E-2,4.0823426E-2,1.2520054E-1],"categories":[],"categories_nodes":[],"categories_segments":[],"categories_sizes":[],"default_left":[0,0,0,0,0,0,0,0,0,0,0,0,0,0,0,0,0,0,0,0,0,0,0,0,0,0,0,0,0,0,0,0,0,0,0,0,0,0,0,0,0,0,0,0,0,0,0,0,0],"id":8,"left_children":[1,3,5,7,9,11,13,15,17,19,21,23,25,27,29,31,33,-1,-1,35,-1,37,-1,-1,39,41,43,-1,45,47,-1,-1,-1,-1,-1,-1,-1,-1,-1,-1,-1,-1,-1,-1,-1,-1,-1,-1,-1],"loss_changes":[5.206635E1,9.368076E0,1.8800188E1,5.7234154E0,5.8660183E0,1.3855969E1,2.9515953E0,5.8859463E0,3.2312775E-1,1.8362586E0,1.9894996E0,4.182036E0,1.1802961E1,5.080125E0,2.271141E0,6.1931276E0,1.5529537E0,0E0,0E0,3.5111024E0,0E0,1.1782532E0,0E0,0E0,2.8993835E0,8.132635E0,2.0468636E0,0E0,2.2634492E0,1.1489105E-1,0E0,0E0,0E0,0E0,0E0,0E0,0E0,0E0,0E0,0E0,0E0,0E0,0E0,0E0,0E0,0E0,0E0,0E0,0E0],"parents":[2147483647,0,0,1,1,2,2,3,3,4,4,5,5,6,6,7,7,8,8,9,9,10,10,11,11,12,12,13,13,14,14,15,15,16,16,19,19,21,21,24,24,25,25,26,26,28,28,29,29],"right_children":[2,4,6,8,10,12,14,16,18,20,22,24,26,28,30,32,34,-1,-1,36,-1,38,-1,-1,40,42,44,-1,46,48,-1,-1,-1,-1,-1,-1,-1,-1,-1,-1,-1,-1,-1,-1,-1,-1,-1,-1,-1],"split_conditions":[-3.970426E-1,1.0228726E0,1.1048334E0,5.057952E-1,-4.808883E-2,-4.021673E-1,-9.8798394E-1,1.5974501E0,-3.131126E-1,4.3416146E-2,6.813767E-1,-1.0492549E0,1.0196798E0,-1.5541865E-1,2.6684844E0,7.172786E-1,-3.7454963E-1,-4.810698E-2,-1.3250975E-1,-8.742719E-1,-1.08066E-1,7.652471E-1,-1.0915584E-2,7.9479806E-2,-5.919955E-1,2.0013635E0,-1.6942723E-1,1.14218034E-1,-4.349902E-1,-5.241662E-1,3.8521457E-3,-4.7803953E-2,3.640489E-2,-3.1228594E-3,-1.1772003E-1,-9.3115024E-2,5.1718175E-2,7.483457E-3,1.2167777E-1,-7.140161E-2,-1.4112907E-2,5.744017E-2,-1.3080935E-1,5.384755E-3,-1.1295803E-1,-6.51517E-2,4.622318E-2,4.0823426E-2,1.2520054E-1],"split_indices":[10,0,10,0,9,9,0,6,2,3,5,1,6,1,3,7,7,0,0,9,0,2,0,0,6,8,3,0,4,3,0,0,0,0,0,0,0,0,0,0,0,0,0,0,0,0,0,0,0],"split_type":[0,0,0,0,0,0,0,0,0,0,0,0,0,0,0,0,0,0,0,0,0,0,0,0,0,0,0,0,0,0,0,0,0,0,0,0,0,0,0,0,0,0,0,0,0,0,0,0,0],"sum_hessian":[2.833566E2,1.2481094E2,1.5854567E2,1.1021857E2,1.4592373E1,1.2067353E2,3.7872135E1,9.844468E1,1.1773888E1,6.713774E0,7.8785987E0,3.8176575E1,8.2496956E1,9.944523E0,2.7927612E1,8.440866E1,1.4036025E1,2.1021764E0,9.671711E0,5.094877E0,1.6188977E0,6.161764E0,1.7168348E0,2.2617397E0,3.5914833E1,7.619512E1,6.301836E0,4.41889E0,5.5256333E0,2.6137999E1,1.7896137E0,7.528319E1,9.125471E0,1.3550181E0,1.2681006E1,1.7085179E0,3.3863587E0,1.2273937E0,4.93437E0,1.5414207E1,2.0500626E1,7.4747665E1,1.4474555E0,1.8807341E0,4.421102E0,3.2459981E0,2.2796352E0,1.3935986E0,2.47444E1],"tree_param":{"num_deleted":"0","num_feature":"11","num_nodes":"49","size_leaf_vector":"1"}},{"base_weights":[-1.2093611E-3,-2.980143E-1,5.374858E-1,-8.0774224E-1,-1.4814243E-1,3.233138E-2,7.371515E-1,2.264564E-1,-8.821997E-1,-5.5037595E-2,-9.856509E-1,4.21268E-1,-5.418046E-1,4.8061788E-1,1.0152333E0,-5.091654E-2,9.418467E-2,3.436175E-2,-9.434665E-1,7.977278E-2,-5.8907276E-1,-1.116472E0,7.516691E-3,1.0677215E0,2.7006362E-2,-9.527647E-1,6.978381E-1,-9.774887E-2,5.5305636E-1,1.1297191E0,3.156771E-1,5.1812887E-2,-4.5826405E-2,-1.0333853E-1,-1.3029759E-2,-1.0938878E-2,6.2952034E-2,4.1001588E-2,-1.0357373E-1,-3.52665E-2,-1.1764592E-1,1.293517E-1,7.7035516E-3,-4.7629695E-2,4.0845286E-2,-1.29112E-1,2.5555873E-2,1.009709E-1,1.2117955E-2,7.005807E-2,-2.353753E-2,1.1827587E-1,4.4412643E-2,-6.7478456E-2,7.381456E-2],"categories":[],"categories_nodes":[],"categories_segments":[],"categories_sizes":[],"default_left":[0,0,0,0,0,0,0,0,0,0,0,0,0,0,0,0,0,0,0,0,0,0,0,0,0,0,0,0,0,0,0,0,0,0,0,0,0,0,0,0,0,0,0,0,0,0,0,0,0,0,0,0,0,0,0],"id":9,"left_children":[1,3,5,7,9,11,13,15,17,19,21,23,25,27,29,-1,-1,31,33,35,37,39,-1,41,43,45,47,-1,49,51,53,-1,-1,-1,-1,-1,-1,-1,-1,-1,-1,-1,-1,-1,-1,-1,-1,-1,-1,-1,-1,-1,-1,-1,-1],"loss_changes":[4.4735256E1,1.3661463E1,1.0001331E1,3.3387814E0,1.0911635E1,6.749358E0,4.5906944E0,2.3390675E0,2.1792583E0,9.234858E0,2.0282717E0,4.5517163E0,6.895912E0,4.6524715E0,2.3073158E0,0E0,0E0,1.0382409E0,2.4881802E0,1.0756932E1,1.1956906E1,1.5946388E-1,0E0,1.4175482E0,2.5347202E0,4.2583637E0,5.291183E-1,0E0,4.5528927E0,5.000305E-1,3.0362313E0,0E0,0E0,0E0,0E0,0E0,0E0,0E0,0E0,0E0,0E0,0E0,0E0,0E0,0E0,0E0,0E0,0E0,0E0,0E0,0E0,0E0,0E0,0E0,0E0],"parents":[2147483647,0,0,1,1,2,2,3,3,4,4,5,5,6,6,7,7,8,8,9,9,10,10,11,11,12,12,13,13,14,14,17,17,18,18,19,19,20,20,21,21,23,23,24,24,25,25,26,26,28,28,29,29,30,30],"right_children":[2,4,6,8,10,12,14,16,18,20,22,24,26,28,30,-1,-1,32,34,36,38,40,-1,42,44,46,48,-1,50,52,54,-1,-1,-1,-1,-1,-1,-1,-1,-1,-1,-1,-1,-1,-1,-1,-1,-1,-1,-1,-1,-1,-1,-1,-1],"split_conditions":[1.1922725E-1,-6.9723266E-1,-4.021673E-1,-9.9339014E-1,1.5974501E0,-5.971554E-1,9.170989E-1,7.138967E-1,-4.562439E-1,2.238752E-1,3.0796041E0,3.167512E-1,3.301438E-1,-1.355075E0,1.6773996E0,-5.091654E-2,9.418467E-2,-7.440403E-1,1.0366852E0,1.8796347E-1,-7.5308484E-1,1.1961321E-2,7.516691E-3,3.3343604E-1,1.0109661E0,3.908891E-1,-4.1345352E-1,-9.774887E-2,4.7231838E-1,1.3914242E0,1.5741696E0,5.1812887E-2,-4.5826405E-2,-1.0333853E-1,-1.3029759E-2,-1.0938878E-2,6.2952034E-2,4.1001588E-2,-1.0357373E-1,-3.52665E-2,-1.1764592E-1,1.293517E-1,7.7035516E-3,-4.7629695E-2,4.0845286E-2,-1.29112E-1,2.5555873E-2,1.009709E-1,1.2117955E-2,7.005807E-2,-2.353753E-2,1.1827587E-1,4.4412643E-2,-6.7478456E-2,7.381456E-2],"split_indices":[10,9,9,1,6,7,10,2,4,4,9,8,4,7,8,0,0,6,3,9,5,5,0,0,10,0,0,0,6,3,10,0,0,0,0,0,0,0,0,0,0,0,0,0,0,0,0,0,0,0,0,0,0,0,0],"split_type":[0,0,0,0,0,0,0,0,0,0,0,0,0,0,0,0,0,0,0,0,0,0,0,0,0,0,0,0,0,0,0,0,0,0,0,0,0,0,0,0,0,0,0,0,0,0,0,0,0,0,0,0,0,0,0],"sum_hessian":[2.7779047E2,1.7939561E2,9.839485E1,3.9764248E1,1.3963136E2,2.8203047E1,7.01918E1,2.5334692E0,3.7230778E1,1.266208E2,1.301057E1,1.6971983E1,1.1231063E1,3.7929626E1,3.2262177E1,1.3911973E0,1.1422719E0,2.3602464E0,3.4870533E1,1.0177869E2,2.484211E1,1.1535532E1,1.4750375E0,5.7825065E0,1.1189476E1,8.608603E0,2.6224601E0,1.2038293E0,3.6725796E1,2.7196438E1,5.065741E0,1.1647106E0,1.1955359E0,3.1154688E1,3.7158453E0,7.631919E1,2.5459497E1,7.7003036E0,1.7141806E1,1.3409117E0,1.019462E1,4.4602547E0,1.322252E0,4.716967E0,6.4725094E0,6.671831E0,1.9367716E0,1.2146066E0,1.4078535E0,3.1030981E1,5.694815E0,2.457043E1,2.6260068E0,1.3360888E0,3.7296524E0],"tree_param":{"num_deleted":"0","num_feature":"11","num_nodes":"55","size_leaf_vector":"1"}},{"base_weights":[-8.81035E-4,-2.7390474E-1,5.0361097E-1,-1.8196815E-1,-1.0183557E0,1.6503792E-1,7.718421E-1,-2.0378726E-2,-6.601989E-1,-1.1123191E0,7.066786E-3,4.3243405E-1,-2.5609106E-1,8.197958E-1,-8.0394074E-2,-3.076402E-1,2.5401086E-1,-8.0848205E-1,2.4469602E-3,-3.147287E-2,-1.186051E0,9.63564E-1,5.97461E-2,-6.6341144E-1,1.1096526E-1,9.4498086E-1,2.622419E-1,-9.376234E-2,-7.1675526E-3,4.3005466E-2,-5.805127E-2,1.9158645E-2,-8.6552344E-2,8.520553E-2,-6.647744E-2,-4.2894855E-2,-1.2365868E-1,1.9013073E-2,1.16041556E-1,-1.22613385E-1,3.106055E-2,-8.6843304E-2,2.8835794E-2,3.35495E-2,-8.800365E-2,-1.9785909E-2,9.8039486E-2,-6.1921466E-2,8.11259E-2],"categories":[],"categories_nodes":[],"categories_segments":[],"categories_sizes":[],"default_left":[0,0,0,0,0,0,0,0,0,0,0,0,0,0,0,0,0,0,0,0,0,0,0,0,0,0,0,0,0,0,0,0,0,0,0,0,0,0,0,0,0,0,0,0,0,0,0,0,0],"id":10,"left_children":[1,3,5,7,9,11,13,15,17,19,-1,21,23,25,-1,27,29,31,33,-1,35,37,39,41,43,45,47,-1,-1,-1,-1,-1,-1,-1,-1,-1,-1,-1,-1,-1,-1,-1,-1,-1,-1,-1,-1,-1,-1],"loss_changes":[3.7752247E1,1.1986433E1,8.613268E0,1.2312909E1,2.0566883E0,5.044832E0,4.696438E0,9.556905E0,3.9571838E0,6.76733E-1,0E0,5.320968E0,2.7116563E0,3.4058456E0,0E0,8.733429E0,9.366133E0,2.042347E0,5.3040633E0,0E0,8.108902E-2,1.4751682E0,5.875471E0,1.9103966E0,2.55099E0,1.908577E0,5.8170276E0,0E0,0E0,0E0,0E0,0E0,0E0,0E0,0E0,0E0,0E0,0E0,0E0,0E0,0E0,0E0,0E0,0E0,0E0,0E0,0E0,0E0,0E0],"parents":[2147483647,0,0,1,1,2,2,3,3,4,4,5,5,6,6,7,7,8,8,9,9,11,11,12,12,13,13,15,15,16,16,17,17,18,18,20,20,21,21,22,22,23,23,24,24,25,25,26,26],"right_children":[2,4,6,8,10,12,14,16,18,20,-1,22,24,26,-1,28,30,32,34,-1,36,38,40,42,44,46,48,-1,-1,-1,-1,-1,-1,-1,-1,-1,-1,-1,-1,-1,-1,-1,-1,-1,-1,-1,-1,-1,-1],"split_conditions":[1.1922725E-1,1.5974501E0,-1.0710191E-1,7.104852E-1,3.0796041E0,8.3509344E-1,1.6886771E0,-6.7864436E-1,8.232813E-1,-4.532184E-1,7.066786E-3,-8.409617E-1,-1.7930022E-1,1.6011404E-1,-8.0394074E-2,-5.792065E-1,8.9988625E-1,-1.1479806E0,-5.242319E-2,-3.147287E-2,1.1961321E-2,-6.0502E-1,-5.837662E-1,-1.6611499E-1,-1.6611499E-1,-1.8872263E0,8.2323164E-1,-9.376234E-2,-7.1675526E-3,4.3005466E-2,-5.805127E-2,1.9158645E-2,-8.6552344E-2,8.520553E-2,-6.647744E-2,-4.2894855E-2,-1.2365868E-1,1.9013073E-2,1.16041556E-1,-1.22613385E-1,3.106055E-2,-8.6843304E-2,2.8835794E-2,3.35495E-2,-8.800365E-2,-1.9785909E-2,9.8039486E-2,-6.1921466E-2,8.11259E-2],"split_indices":[10,6,9,1,9,8,6,10,7,3,0,7,5,4,0,9,8,10,4,0,5,4,4,9,9,1,10,0,0,0,0,0,0,0,0,0,0,0,0,0,0,0,0,0,0,0,0,0,0],"split_type":[0,0,0,0,0,0,0,0,0,0,0,0,0,0,0,0,0,0,0,0,0,0,0,0,0,0,0,0,0,0,0,0,0,0,0,0,0,0,0,0,0,0,0,0,0,0,0,0,0],"sum_hessian":[2.7208533E2,1.7683946E2,9.524587E1,1.5850873E2,1.8330738E1,4.281641E1,5.242946E1,1.1925594E2,3.9252785E1,1.6855055E1,1.4756832E0,2.6171778E1,1.6644632E1,5.134665E1,1.0828094E0,5.820222E1,6.1053722E1,3.1895346E1,7.35744E0,1.8721147E0,1.498294E1,1.0138138E1,1.603364E1,7.5068927E0,9.13774E0,4.1364418E1,9.982234E0,1.5049416E1,4.3152805E1,5.0818226E1,1.0235498E1,1.593789E0,3.0301556E1,3.1145267E0,4.2429132E0,1.5312042E0,1.34517355E1,2.4556606E0,7.682477E0,1.9827142E0,1.4050925E1,6.2484646E0,1.2584282E0,7.9891167E0,1.1486231E0,1.1053939E0,4.025902E1,3.7821174E0,6.200116E0],"tree_param":{"num_deleted":"0","num_feature":"11","num_nodes":"49","size_leaf_vector":"1"}},{"base_weights":[-2.2558456E-3,-1.672992E-1,7.348486E-1,-5.5810857E-1,4.1869167E-2,9.7851984E-2,9.635981E-1,4.6016964E-1,-6.1713314E-1,1.956145E-1,-5.31451E-1,-6.743965E-1,7.6657563E-1,1.0244036E0,-1.3632226E-2,-4.668048E-2,8.6516976E-1,-1.8700764E-2,-6.6414136E-1,2.6947588E-1,-1.12782516E-1,5.000618E-1,-8.7637347E-1,4.3961447E-2,-9.62996E-1,1.10731654E-1,1.4539783E-1,1.0822846E0,1.104258E-1,2.4320928E-2,1.03488326E-1,-5.2569505E-2,5.8346506E-2,-8.4957294E-2,-4.068648E-2,1.5880893E-3,5.489517E-2,1.3200387E-1,-5.283943E-4,-1.4928894E-1,-4.469767E-2,-2.0090418E-2,-1.2546192E-1,8.067808E-2,-7.346344E-2,4.627983E-2,1.188448E-1,3.2674134E-2,-1.5035833E-2],"categories":[],"categories_nodes":[],"categories_segments":[],"categories_sizes":[],"default_left":[0,0,0,0,0,0,0,0,0,0,0,0,0,0,0,0,0,0,0,0,0,0,0,0,0,0,0,0,0,0,0,0,0,0,0,0,0,0,0,0,0,0,0,0,0,0,0,0,0],"id":11,"left_children":[1,3,5,7,9,11,13,15,17,19,21,23,25,27,-1,-1,29,31,33,35,-1,37,39,-1,41,-1,43,45,47,-1,-1,-1,-1,-1,-1,-1,-1,-1,-1,-1,-1,-1,-1,-1,-1,-1,-1,-1,-1],"loss_changes":[3.268301E1,1.7965963E1,7.0674324E0,4.8874035E0,1.2788356E1,7.7982306E0,2.5507278E0,2.1943574E0,2.0361614E0,1.14675255E1,1.1360643E1,2.6980562E0,1.5374112E0,1.693924E0,0E0,0E0,1.3564849E-1,2.2400668E0,2.8740807E0,7.7147193E0,0E0,3.4585083E0,5.519264E0,0E0,1.066484E0,0E0,2.9171047E0,1.5626755E0,2.2711761E-1,0E0,0E0,0E0,0E0,0E0,0E0,0E0,0E0,0E0,0E0,0E0,0E0,0E0,0E0,0E0,0E0,0E0,0E0,0E0,0E0],"parents":[2147483647,0,0,1,1,2,2,3,3,4,4,5,5,6,6,7,7,8,8,9,9,10,10,11,11,12,12,13,13,16,16,17,17,18,18,19,19,21,21,22,22,24,24,26,26,27,27,28,28],"right_children":[2,4,6,8,10,12,14,16,18,20,22,24,26,28,-1,-1,30,32,34,36,-1,38,40,-1,42,-1,44,46,48,-1,-1,-1,-1,-1,-1,-1,-1,-1,-1,-1,-1,-1,-1,-1,-1,-1,-1,-1,-1],"split_conditions":[8.2323164E-1,-4.6118036E-1,-5.837662E-1,-9.9339014E-1,2.238752E-1,1.5741696E0,1.3249977E0,-6.432657E-1,-4.562439E-1,1.810313E0,-8.487156E-1,-8.8131833E-1,-1.8638881E0,2.3251076E0,-1.3632226E-2,-4.668048E-2,-9.33285E-1,-2.9854745E-1,-6.9723266E-1,6.9937326E-2,-1.12782516E-1,-2.2512805E-1,4.5766613E-1,4.3961447E-2,-8.9608514E-1,1.10731654E-1,7.700182E-2,-9.9216175E-1,-3.9248273E-1,2.4320928E-2,1.03488326E-1,-5.2569505E-2,5.8346506E-2,-8.4957294E-2,-4.068648E-2,1.5880893E-3,5.489517E-2,1.3200387E-1,-5.283943E-4,-1.4928894E-1,-4.469767E-2,-2.0090418E-2,-1.2546192E-1,8.067808E-2,-7.346344E-2,4.627983E-2,1.188448E-1,3.2674134E-2,-1.5035833E-2],"split_indices":[10,9,4,1,4,10,1,0,4,6,5,4,7,10,0,0,9,0,9,9,0,9,4,0,6,0,6,5,4,0,0,0,0,0,0,0,0,0,0,0,0,0,0,0,0,0,0,0,0],"split_type":[0,0,0,0,0,0,0,0,0,0,0,0,0,0,0,0,0,0,0,0,0,0,0,0,0,0,0,0,0,0,0,0,0,0,0,0,0,0,0,0,0,0,0,0,0,0,0,0,0],"sum_hessian":[2.6664447E2,2.1849484E2,4.814964E1,7.559158E1,1.4290326E2,1.3099459E1,3.5050182E1,3.7692437E0,7.182234E1,1.1320441E2,2.9698843E1,6.0752354E0,7.024224E0,3.3279114E1,1.7710688E0,1.0996753E0,2.6695683E0,5.3327093E0,6.648963E1,1.0797471E2,5.229704E0,7.3295565E0,2.2369287E1,1.1423663E0,4.9328694E0,4.030645E0,2.9935784E0,3.1123926E1,2.1551867E0,1.0938652E0,1.5757033E0,2.964086E0,2.3686233E0,3.7302063E1,2.9187569E1,5.716253E1,5.0812176E1,2.1800482E0,5.149508E0,8.166844E0,1.4202442E1,1.8326267E0,3.1002426E0,1.7566304E0,1.236948E0,5.337535E0,2.578639E1,1.0397855E0,1.1154011E0],"tree_param":{"num_deleted":"0","num_feature":"11","num_nodes":"49","size_leaf_vector":"1"}},{"base_weights":[-1.7873214E-3,-1.5382732E-1,6.96398E-1,-5.148038E-1,3.714976E-2,9.216074E-2,9.202724E-1,4.3623683E-1,-5.70586E-1,1.7734577E-1,-4.8656455E-1,-6.1844414E-1,7.3191905E-1,1.0781872E0,3.8333938E-1,-2.6976783E-2,9.6154876E-2,-4.4710168E-1,-8.378085E-1,2.4508987E-1,-1.0888509E-1,4.6746525E-1,-8.093038E-1,4.1913E-2,-8.8446474E-1,1.0648421E-1,1.360236E-1,1.135441E0,-1.0858304E-2,-2.567197E-1,8.128115E-1,-7.3770694E-2,-1.322255E-2,2.7477652E-2,-9.369675E-2,3.571626E-2,-3.2406174E-2,1.24022424E-1,-4.8411055E-4,-1.3991702E-1,-4.0763255E-2,-1.8776368E-2,-1.1478277E-1,7.7996895E-2,-6.901463E-2,3.3785146E-2,1.1596105E-1,1.9295063E-2,-6.628564E-2,1.0100732E-1,-2.982652E-3],"categories":[],"categories_nodes":[],"categories_segments":[],"categories_sizes":[],"default_left":[0,0,0,0,0,0,0,0,0,0,0,0,0,0,0,0,0,0,0,0,0,0,0,0,0,0,0,0,0,0,0,0,0,0,0,0,0,0,0,0,0,0,0,0,0,0,0,0,0,0,0],"id":12,"left_children":[1,3,5,7,9,11,13,15,17,19,21,23,25,27,29,-1,-1,31,33,35,-1,37,39,-1,41,-1,43,45,-1,47,49,-1,-1,-1,-1,-1,-1,-1,-1,-1,-1,-1,-1,-1,-1,-1,-1,-1,-1,-1,-1],"loss_changes":[2.7968674E1,1.4934038E1,6.288761E0,4.2237988E0,1.0543612E1,6.7485585E0,2.4922142E0,2.0091383E0,1.9751072E0,9.9668665E0,9.7209835E0,2.3312924E0,1.3918061E0,1.8850193E0,2.7759738E0,0E0,0E0,4.555149E0,2.614071E0,7.0146704E0,0E0,3.0367475E0,4.8883343E0,0E0,8.808336E-1,0E0,2.6252527E0,8.672714E-2,0E0,9.515964E-1,9.99063E-1,0E0,0E0,0E0,0E0,0E0,0E0,0E0,0E0,0E0,0E0,0E0,0E0,0E0,0E0,0E0,0E0,0E0,0E0,0E0,0E0],"parents":[2147483647,0,0,1,1,2,2,3,3,4,4,5,5,6,6,7,7,8,8,9,9,10,10,11,11,12,12,13,13,14,14,17,17,18,18,19,19,21,21,22,22,24,24,26,26,27,27,29,29,30,30],"right_children":[2,4,6,8,10,12,14,16,18,20,22,24,26,28,30,-1,-1,32,34,36,-1,38,40,-1,42,-1,44,46,-1,48,50,-1,-1,-1,-1,-1,-1,-1,-1,-1,-1,-1,-1,-1,-1,-1,-1,-1,-1,-1,-1],"split_conditions":[8.2323164E-1,-4.6118036E-1,-5.837662E-1,-9.9339014E-1,2.238752E-1,1.5741696E0,7.703007E-1,-8.1944525E-1,3.7276968E-1,1.810313E0,-8.487156E-1,-8.8131833E-1,-1.8638881E0,2.5166516E0,-5.919955E-1,-2.6976783E-2,9.6154876E-2,-7.5624573E-1,-3.2872158E-1,6.5462047E-1,-1.0888509E-1,-2.2512805E-1,4.5766613E-1,4.1913E-2,-8.9608514E-1,1.0648421E-1,7.700182E-2,-8.742719E-1,-1.0858304E-2,-1.6942723E-1,1.3249977E0,-7.3770694E-2,-1.322255E-2,2.7477652E-2,-9.369675E-2,3.571626E-2,-3.2406174E-2,1.24022424E-1,-4.8411055E-4,-1.3991702E-1,-4.0763255E-2,-1.8776368E-2,-1.1478277E-1,7.7996895E-2,-6.901463E-2,3.3785146E-2,1.1596105E-1,1.9295063E-2,-6.628564E-2,1.0100732E-1,-2.982652E-3],"split_indices":[10,9,4,1,4,10,8,10,7,6,5,4,7,0,6,0,0,9,4,1,0,9,4,0,6,0,6,9,0,3,1,0,0,0,0,0,0,0,0,0,0,0,0,0,0,0,0,0,0,0,0],"split_type":[0,0,0,0,0,0,0,0,0,0,0,0,0,0,0,0,0,0,0,0,0,0,0,0,0,0,0,0,0,0,0,0,0,0,0,0,0,0,0,0,0,0,0,0,0,0,0,0,0,0,0],"sum_hessian":[2.6146817E2,2.1535184E2,4.6116318E1,7.39255E1,1.4142635E2,1.2848866E1,3.3267452E1,3.7179086E0,7.020759E1,1.12083466E2,2.934288E1,6.1031604E0,6.745706E0,2.4927961E1,8.339491E0,1.7936946E0,1.9242141E0,4.98465E1,2.0361088E1,1.071568E2,4.926671E0,7.3038845E0,2.2038996E1,1.1280019E0,4.9751587E0,3.822909E0,2.9227967E0,2.382196E1,1.1060002E0,3.5102584E0,4.829232E0,2.5223969E1,2.462253E1,1.5212517E0,1.8839836E1,8.983891E1,1.7317886E1,2.1539054E0,5.149979E0,7.9219713E0,1.4117024E1,1.8346684E0,3.14049E0,1.6739693E0,1.2488275E0,1.1411958E0,2.2680765E1,1.9149537E0,1.5953047E0,3.7521496E0,1.0770826E0],"tree_param":{"num_deleted":"0","num_feature":"11","num_nodes":"51","size_leaf_vector":"1"}},{"base_weights":[-1.6411704E-3,-3.422887E-1,2.751404E-1,-4.2524382E-1,2.647119E-1,1.2587255E-1,8.0723315E-1,-3.3765262E-1,-1.0923427E0,-3.1489658E-1,7.383843E-1,-1.4050299E-1,3.6638302E-1,1.0329283E0,3.6592492E-1,-2.6788577E-1,-1.1351426E0,-3.472766E-2,-1.2080254E-1,2.4476135E-2,-9.732141E-2,9.5397305E-1,-9.718813E-3,-5.163949E-1,4.2024408E-2,4.6814072E-1,-4.8798606E-1,1.09950505E-1,8.601321E-3,-2.6004606E-1,8.588031E-1,-5.631463E-2,-3.2862485E-3,-1.268018E-1,-1.9448042E-2,-7.773171E-2,4.6290543E-2,3.3124596E-2,1.161228E-1,-1.6389769E-2,-1.0108423E-1,8.261318E-2,-1.922944E-2,5.772084E-2,-3.2191865E-2,3.2979738E-2,-1.1262164E-1,-5.8696736E-2,5.02006E-2,-9.854756E-4,1.017405E-1],"categories":[],"categories_nodes":[],"categories_segments":[],"categories_sizes":[],"default_left":[0,0,0,0,0,0,0,0,0,0,0,0,0,0,0,0,0,0,0,0,0,0,0,0,0,0,0,0,0,0,0,0,0,0,0,0,0,0,0,0,0,0,0,0,0,0,0,0,0,0,0],"id":13,"left_children":[1,3,5,7,9,11,13,15,17,19,21,23,25,27,29,31,33,-1,-1,35,-1,37,-1,39,41,43,45,-1,-1,47,49,-1,-1,-1,-1,-1,-1,-1,-1,-1,-1,-1,-1,-1,-1,-1,-1,-1,-1,-1,-1],"loss_changes":[2.4363728E1,5.945348E0,1.12219515E1,5.6083145E0,4.225376E0,7.260312E0,2.7145061E0,4.8072634E0,5.652075E-1,1.6416683E0,1.5882621E0,3.7344167E0,5.393378E0,1.1659012E0,3.9425004E0,5.9344516E0,6.3850975E-1,0E0,0E0,2.3824117E0,0E0,4.7902012E-1,0E0,2.9302316E0,7.021226E0,4.8042316E0,3.9270148E0,0E0,0E0,1.8088533E0,9.7121143E-1,0E0,0E0,0E0,0E0,0E0,0E0,0E0,0E0,0E0,0E0,0E0,0E0,0E0,0E0,0E0,0E0,0E0,0E0,0E0,0E0],"parents":[2147483647,0,0,1,1,2,2,3,3,4,4,5,5,6,6,7,7,8,8,9,9,10,10,11,11,12,12,13,13,14,14,15,15,16,16,19,19,21,21,23,23,24,24,25,25,26,26,29,29,30,30],"right_children":[2,4,6,8,10,12,14,16,18,20,22,24,26,28,30,32,34,-1,-1,36,-1,38,-1,40,42,44,46,-1,-1,48,50,-1,-1,-1,-1,-1,-1,-1,-1,-1,-1,-1,-1,-1,-1,-1,-1,-1,-1,-1,-1],"split_conditions":[-3.970426E-1,1.0228726E0,1.1048334E0,5.057952E-1,-4.808883E-2,-1.6611499E-1,-1.5541865E-1,1.7333151E0,-3.131126E-1,4.3416146E-2,-4.9090987E-1,-7.5308484E-1,9.436574E-1,2.6684844E0,-9.8798394E-1,-8.6637884E-1,2.100902E0,-3.472766E-2,-1.2080254E-1,-8.742719E-1,-9.732141E-2,-8.487156E-1,-9.718813E-3,-2.7531648E-2,-1.2374209E0,1.1590574E0,1.2237286E-1,1.09950505E-1,8.601321E-3,2.2605345E0,-8.742719E-1,-5.631463E-2,-3.2862485E-3,-1.268018E-1,-1.9448042E-2,-7.773171E-2,4.6290543E-2,3.3124596E-2,1.161228E-1,-1.6389769E-2,-1.0108423E-1,8.261318E-2,-1.922944E-2,5.772084E-2,-3.2191865E-2,3.2979738E-2,-1.1262164E-1,-5.8696736E-2,5.02006E-2,-9.854756E-4,1.017405E-1],"split_indices":[10,0,10,0,9,9,1,5,2,3,10,5,6,3,0,10,3,0,0,9,0,5,0,3,2,8,8,0,0,8,9,0,0,0,0,0,0,0,0,0,0,0,0,0,0,0,0,0,0,0,0],"split_type":[0,0,0,0,0,0,0,0,0,0,0,0,0,0,0,0,0,0,0,0,0,0,0,0,0,0,0,0,0,0,0,0,0,0,0,0,0,0,0,0,0,0,0,0,0,0,0,0,0,0,0],"sum_hessian":[2.5640637E2,1.1483594E2,1.4157043E2,1.0129236E2,1.3543583E1,1.11521805E2,3.0048624E1,9.086746E1,1.0424897E1,6.2414474E0,7.3021355E0,5.3112865E1,5.840894E1,1.8994032E1,1.1054591E1,8.478603E1,6.0814285E0,1.9389379E0,8.485959E0,4.7536755E0,1.487772E0,5.69186E0,1.6102753E0,1.6762825E1,3.635004E1,5.2596603E1,5.812337E0,1.7595749E1,1.3982835E0,5.077895E0,5.9766965E0,3.6958645E1,4.782739E1,5.023777E0,1.0576513E0,1.4072175E0,3.3464582E0,2.070125E0,3.621735E0,1.05634775E1,6.199348E0,7.782288E0,2.8567755E1,4.6453156E1,6.1434474E0,2.7596188E0,3.0527182E0,3.7142372E0,1.3636581E0,1.0675614E0,4.909135E0],"tree_param":{"num_deleted":"0","num_feature":"11","num_nodes":"51","size_leaf_vector":"1"}},{"base_weights":[-2.2824935E-3,-1.3363914E-1,6.366517E-1,-6.1610244E-2,-9.1940886E-1,5.939791E-2,8.61129E-1,1.01066895E-1,-3.718698E-1,-1.0235155E0,1.5491486E-2,-5.830587E-1,6.7199826E-1,1.021226E0,3.4934452E-1,2.2707362E-1,-4.8409513E-1,1.9717923E-1,-4.6005782E-1,-2.3592884E-2,-1.1027922E-1,3.9502215E-2,-8.2808113E-1,1.00542925E-1,9.366071E-2,1.0820735E0,-1.2251219E-2,-2.415793E-1,7.691612E-1,-5.348955E-3,6.2117554E-2,-9.6741244E-2,9.583819E-3,8.958907E-2,-4.265721E-2,-6.301154E-2,4.4819876E-3,-1.8207043E-2,-1.0638388E-1,7.27276E-2,-6.562256E-2,3.0798301E-2,1.1079141E-1,1.780698E-2,-6.1998326E-2,9.616688E-2,-1.7652445E-3],"categories":[],"categories_nodes":[],"categories_segments":[],"categories_sizes":[],"default_left":[0,0,0,0,0,0,0,0,0,0,0,0,0,0,0,0,0,0,0,0,0,0,0,0,0,0,0,0,0,0,0,0,0,0,0,0,0,0,0,0,0,0,0,0,0,0,0],"id":14,"left_children":[1,3,5,7,9,11,13,15,17,19,-1,21,23,25,27,29,31,33,35,-1,-1,-1,37,-1,39,41,-1,43,45,-1,-1,-1,-1,-1,-1,-1,-1,-1,-1,-1,-1,-1,-1,-1,-1,-1,-1],"loss_changes":[2.1301039E1,1.1857595E1,5.5572014E0,9.824217E0,2.12749E0,5.583909E0,2.190487E0,9.547271E0,3.4485044E0,7.500839E-1,0E0,1.9986057E0,1.2976515E0,1.7444057E0,2.4006143E0,1.175304E1,6.5386147E0,4.6000643E0,5.027981E0,0E0,0E0,0E0,7.049527E-1,0E0,2.255322E0,1.0070038E-1,0E0,8.2009387E-1,8.437753E-1,0E0,0E0,0E0,0E0,0E0,0E0,0E0,0E0,0E0,0E0,0E0,0E0,0E0,0E0,0E0,0E0,0E0,0E0],"parents":[2147483647,0,0,1,1,2,2,3,3,4,4,5,5,6,6,7,7,8,8,9,9,11,11,12,12,13,13,14,14,15,15,16,16,17,17,18,18,22,22,24,24,25,25,27,27,28,28],"right_children":[2,4,6,8,10,12,14,16,18,20,-1,22,24,26,28,30,32,34,36,-1,-1,-1,38,-1,40,42,-1,44,46,-1,-1,-1,-1,-1,-1,-1,-1,-1,-1,-1,-1,-1,-1,-1,-1,-1,-1],"split_conditions":[8.2323164E-1,1.5974501E0,-5.837662E-1,4.5909378E-1,3.0796041E0,1.5741696E0,7.703007E-1,2.0262147E-1,-3.9248273E-1,-4.532184E-1,1.5491486E-2,-8.8131833E-1,-1.8638881E0,2.5166516E0,-5.919955E-1,-4.808883E-2,6.064422E-1,-5.311775E-1,5.331363E-1,-2.3592884E-2,-1.1027922E-1,3.9502215E-2,-8.9608514E-1,1.00542925E-1,7.700182E-2,-8.742719E-1,-1.2251219E-2,-1.6942723E-1,1.3249977E0,-5.348955E-3,6.2117554E-2,-9.6741244E-2,9.583819E-3,8.958907E-2,-4.265721E-2,-6.301154E-2,4.4819876E-3,-1.8207043E-2,-1.0638388E-1,7.27276E-2,-6.562256E-2,3.0798301E-2,1.1079141E-1,1.780698E-2,-6.1998326E-2,9.616688E-2,-1.7652445E-3],"split_indices":[10,6,4,1,9,10,8,4,4,3,0,4,7,0,6,9,4,6,6,0,0,0,6,0,6,9,0,3,1,0,0,0,0,0,0,0,0,0,0,0,0,0,0,0,0,0,0],"split_type":[0,0,0,0,0,0,0,0,0,0,0,0,0,0,0,0,0,0,0,0,0,0,0,0,0,0,0,0,0,0,0,0,0,0,0,0,0,0,0,0,0,0,0,0,0,0,0],"sum_hessian":[2.5178682E2,2.0950594E2,4.228088E1,1.9290169E2,1.6604248E1,1.2192333E1,3.0088549E1,1.2699117E2,6.5910515E1,1.5180487E1,1.4237604E0,5.9746847E0,6.217649E0,2.2160769E1,7.92778E0,1.04994064E2,2.1997105E1,8.678034E0,5.723248E1,1.7519071E0,1.3428579E1,1.0742608E0,4.9004235E0,3.4754522E0,2.7421968E0,2.109255E1,1.0682182E0,3.469191E0,4.4585896E0,6.1836567E1,4.3157497E1,1.1633546E1,1.0363558E1,3.88729E0,4.7907443E0,4.2626556E1,1.4605926E1,1.784075E0,3.1163487E0,1.5026698E0,1.239527E0,1.0986812E0,1.9993868E1,1.8959764E0,1.5732145E0,3.4036062E0,1.0549831E0],"tree_param":{"num_deleted":"0","num_feature":"11","num_nodes":"47","size_leaf_vector":"1"}},{"base_weights":[-1.683796E-3,-1.0606967E-1,7.060154E-1,-4.1199118E-2,-8.815172E-1,1.9946645E-1,9.041343E-1,-3.4468254E-1,1.0585937E-1,9.101408E-3,-1.0019445E0,7.765936E-2,-1.771088E-1,9.812984E-1,-8.515879E-3,4.863059E-1,-4.063755E-1,2.1594149E-1,-3.1287998E-1,-2.52232E-2,-1.09228365E-1,-5.1051176E-1,2.7777964E-1,1.0126938E0,3.8571686E-2,7.995217E-2,-2.70849E-2,-4.924013E-2,1.8997278E-2,2.1907284E-3,4.7800533E-2,4.5291726E-2,-6.2900804E-2,2.5520379E-2,-8.801434E-2,-3.3598527E-2,8.0022894E-2,5.1213242E-2,1.081319E-1],"categories":[],"categories_nodes":[],"categories_segments":[],"categories_sizes":[],"default_left":[0,0,0,0,0,0,0,0,0,0,0,0,0,0,0,0,0,0,0,0,0,0,0,0,0,0,0,0,0,0,0,0,0,0,0,0,0,0,0],"id":15,"left_children":[1,3,5,7,9,11,13,15,17,-1,19,-1,21,23,-1,25,27,29,31,-1,-1,33,35,37,-1,-1,-1,-1,-1,-1,-1,-1,-1,-1,-1,-1,-1,-1,-1],"loss_changes":[1.8408983E1,1.08871E1,3.0342865E0,9.026492E0,2.048769E0,2.3736517E0,1.8197212E0,3.5803695E0,6.3573656E0,0E0,7.374344E-1,0E0,1.209591E0,5.373001E-3,0E0,1.4059591E0,3.2726202E0,5.513712E0,7.260142E0,0E0,0E0,1.4742585E0,1.4313846E0,1.1612892E-1,0E0,0E0,0E0,0E0,0E0,0E0,0E0,0E0,0E0,0E0,0E0,0E0,0E0,0E0,0E0],"parents":[2147483647,0,0,1,1,2,2,3,3,4,4,5,5,6,6,7,7,8,8,10,10,12,12,13,13,15,15,16,16,17,17,18,18,21,21,22,22,23,23],"right_children":[2,4,6,8,10,12,14,16,18,-1,20,-1,22,24,-1,26,28,30,32,-1,-1,34,36,38,-1,-1,-1,-1,-1,-1,-1,-1,-1,-1,-1,-1,-1,-1,-1],"split_conditions":[1.0109661E0,1.5974501E0,-9.8798394E-1,-4.6118036E-1,-1.4326539E0,-1.5541865E-1,2.6684844E0,-9.9339014E-1,2.238752E-1,9.101408E-3,1.1961321E-2,7.765936E-2,-4.349902E-1,1.3914242E0,-8.515879E-3,-1.16184354E-1,1.0196798E0,1.289504E-1,-8.487156E-1,-2.52232E-2,-1.09228365E-1,-3.822706E-1,6.5462047E-1,-6.0502E-1,3.8571686E-2,7.995217E-2,-2.70849E-2,-4.924013E-2,1.8997278E-2,2.1907284E-3,4.7800533E-2,4.5291726E-2,-6.2900804E-2,2.5520379E-2,-8.801434E-2,-3.3598527E-2,8.0022894E-2,5.1213242E-2,1.081319E-1],"split_indices":[10,6,0,9,8,1,3,1,4,0,5,0,4,3,0,4,6,9,5,0,0,3,1,4,0,0,0,0,0,0,0,0,0,0,0,0,0,0,0],"split_type":[0,0,0,0,0,0,0,0,0,0,0,0,0,0,0,0,0,0,0,0,0,0,0,0,0,0,0,0,0,0,0,0,0,0,0,0,0,0,0],"sum_hessian":[2.471813E2,2.1614932E2,3.1031979E1,2.0043495E2,1.5714383E1,9.288924E0,2.1743055E1,6.498405E1,1.354509E2,1.7583975E0,1.3955986E1,3.2483518E0,6.040572E0,2.0177322E1,1.5657341E0,4.0153685E0,6.0968678E1,1.0763826E2,2.7812645E1,1.9086224E0,1.2047363E1,3.4151876E0,2.6253843E0,1.850168E1,1.675641E0,2.800795E0,1.2145734E0,5.3434784E1,7.5338917E0,6.246917E1,4.5169086E1,8.0001545E0,1.9812492E1,1.2126592E0,2.2025285E0,1.3713032E0,1.2540812E0,3.2510238E0,1.5250656E1],"tree_param":{"num_deleted":"0","num_feature":"11","num_nodes":"39","size_leaf_vector":"1"}},{"base_weights":[-7.1858976E-4,-2.8686634E-1,2.3671643E-1,-3.5852593E-1,2.3664987E-1,1.14041395E-1,7.2292846E-1,-2.744484E-1,-1.0247372E0,-2.874924E-1,6.718007E-1,1.5480275E-1,-1.2515849E-1,9.581994E-1,3.0486926E-1,-2.0821849E-1,-1.072614E0,-2.9444763E-2,-1.1454544E-1,2.727836E-1,-6.11882E-1,1.3592276E-1,1.0338334E-1,2.178121E-1,-5.6955636E-1,1.0348934E0,5.038608E-3,-9.256918E-3,8.925166E-2,-4.843263E-2,6.651796E-4,-1.22294284E-1,-2.337472E-2,8.342998E-2,-4.339565E-2,-8.004399E-3,-1.0034253E-1,1.0481568E-1,-5.1103044E-2,-9.9928165E-3,3.7183605E-2,-8.41515E-2,3.3724666E-2,3.534883E-2,1.0757508E-1,-6.581392E-2,4.0509712E-2],"categories":[],"categories_nodes":[],"categories_segments":[],"categories_sizes":[],"default_left":[0,0,0,0,0,0,0,0,0,0,0,0,0,0,0,0,0,0,0,0,0,0,0,0,0,0,0,0,0,0,0,0,0,0,0,0,0,0,0,0,0,0,0,0,0,0,0],"id":16,"left_children":[1,3,5,7,9,11,13,15,17,19,21,23,-1,25,27,29,31,-1,-1,33,35,37,-1,39,41,43,-1,45,-1,-1,-1,-1,-1,-1,-1,-1,-1,-1,-1,-1,-1,-1,-1,-1,-1,-1,-1],"loss_changes":[1.664384E1,4.252368E0,7.9032145E0,5.214347E0,3.381174E0,6.2109547E0,2.342558E0,4.454106E0,5.997286E-1,1.4465606E0,1.3992712E0,4.9553857E0,0E0,1.1087656E0,2.0596476E0,4.9241066E0,5.387087E-1,0E0,0E0,1.6610761E0,9.124378E-1,3.103762E0,0E0,4.8384495E0,2.4410772E0,4.6360016E-2,0E0,2.4797945E0,0E0,0E0,0E0,0E0,0E0,0E0,0E0,0E0,0E0,0E0,0E0,0E0,0E0,0E0,0E0,0E0,0E0,0E0,0E0],"parents":[2147483647,0,0,1,1,2,2,3,3,4,4,5,5,6,6,7,7,8,8,9,9,10,10,11,11,13,13,14,14,15,15,16,16,19,19,20,20,21,21,23,23,24,24,25,25,27,27],"right_children":[2,4,6,8,10,12,14,16,18,20,22,24,-1,26,28,30,32,-1,-1,34,36,38,-1,40,42,44,-1,46,-1,-1,-1,-1,-1,-1,-1,-1,-1,-1,-1,-1,-1,-1,-1,-1,-1,-1,-1],"split_conditions":[-3.970426E-1,1.0228726E0,1.1048334E0,5.057952E-1,-4.808883E-2,2.0013635E0,5.759223E-1,1.7333151E0,-3.131126E-1,-9.602461E-1,9.192985E-1,1.0196798E0,-1.2515849E-1,2.6684844E0,2.4697655E-1,-8.6637884E-1,7.3847914E-1,-2.9444763E-2,-1.1454544E-1,-1.1734828E0,-2.7531648E-2,1.1952317E0,1.0338334E-1,-4.021673E-1,8.165976E-1,-5.241662E-1,5.038608E-3,-6.262737E-1,8.925166E-2,-4.843263E-2,6.651796E-4,-1.22294284E-1,-2.337472E-2,8.342998E-2,-4.339565E-2,-8.004399E-3,-1.0034253E-1,1.0481568E-1,-5.1103044E-2,-9.9928165E-3,3.7183605E-2,-8.41515E-2,3.3724666E-2,3.534883E-2,1.0757508E-1,-6.581392E-2,4.0509712E-2],"split_indices":[10,0,10,0,9,8,8,5,2,10,2,6,0,3,9,10,7,0,0,8,3,0,0,9,2,3,0,4,0,0,0,0,0,0,0,0,0,0,0,0,0,0,0,0,0,0,0],"split_type":[0,0,0,0,0,0,0,0,0,0,0,0,0,0,0,0,0,0,0,0,0,0,0,0,0,0,0,0,0,0,0,0,0,0,0,0,0,0,0,0,0,0,0,0,0,0,0],"sum_hessian":[2.4297368E2,1.1008963E2,1.3288406E2,9.711197E1,1.2977657E1,1.0709717E2,2.578689E1,8.7483315E1,9.628655E0,6.0407987E0,6.9368587E0,1.0485411E2,2.243054E0,1.5674014E1,1.0112875E1,8.194461E1,5.5387015E0,1.8536963E0,7.7749596E0,2.2733767E0,3.767422E0,3.3514752E0,3.5853834E0,9.710648E1,7.7476335E0,1.4323914E1,1.3501004E0,7.2315216E0,2.8813539E0,3.5313198E1,4.6631416E1,4.3087096E0,1.2299922E0,1.1662682E0,1.1071085E0,2.1082253E0,1.6591965E0,1.1333112E0,2.218164E0,3.1818476E1,6.5288E1,6.015521E0,1.7321125E0,1.3562714E0,1.2967643E1,2.5889118E0,4.6426096E0],"tree_param":{"num_deleted":"0","num_feature":"11","num_nodes":"47","size_leaf_vector":"1"}},{"base_weights":[-1.3043908E-3,-1.0722213E-1,5.5705875E-1,-4.7841843E-2,-8.2144296E-1,2.299601E-2,7.8053474E-1,-5.042567E-1,3.86267E-2,-2.7325457E-2,-9.952295E-1,-5.651416E-1,6.2408644E-1,9.524387E-1,2.848665E-1,-6.414402E-1,5.282811E-1,1.7044766E-1,-2.4802807E-1,-6.610257E-2,5.2420862E-2,-2.167016E-2,-1.1093604E-1,3.6832735E-2,-7.9246634E-1,9.473772E-2,6.668967E-2,1.0210623E0,-1.635599E-2,-2.68736E-1,7.114906E-1,2.648761E-2,-7.9223886E-2,-7.17411E-2,1.23446204E-1,2.9441837E-2,-3.603524E-2,-8.988819E-2,-1.2765584E-2,-1.18468784E-1,-3.406691E-2,-5.885716E-2,6.622402E-2,2.726256E-2,1.0530287E-1,1.4585756E-2,-6.263119E-2,9.102138E-2,-3.899458E-3],"categories":[],"categories_nodes":[],"categories_segments":[],"categories_sizes":[],"default_left":[0,0,0,0,0,0,0,0,0,0,0,0,0,0,0,0,0,0,0,0,0,0,0,0,0,0,0,0,0,0,0,0,0,0,0,0,0,0,0,0,0,0,0,0,0,0,0,0,0],"id":17,"left_children":[1,3,5,7,9,11,13,15,17,19,21,23,25,27,29,31,33,35,37,-1,-1,-1,-1,-1,39,-1,41,43,-1,45,47,-1,-1,-1,-1,-1,-1,-1,-1,-1,-1,-1,-1,-1,-1,-1,-1,-1,-1],"loss_changes":[1.4260052E1,8.555848E0,4.570648E0,7.445727E0,2.1111336E0,4.726558E0,2.035616E0,4.5942645E0,6.0552716E0,1.67822E0,8.866358E-1,1.7302356E0,1.1250544E0,1.6738472E0,2.1747682E0,3.8959503E0,4.4674196E0,7.317854E0,3.8442564E0,0E0,0E0,0E0,0E0,0E0,6.1855316E-1,0E0,1.7541698E0,1.5969658E-1,0E0,7.408496E-1,7.837813E-1,0E0,0E0,0E0,0E0,0E0,0E0,0E0,0E0,0E0,0E0,0E0,0E0,0E0,0E0,0E0,0E0,0E0,0E0],"parents":[2147483647,0,0,1,1,2,2,3,3,4,4,5,5,6,6,7,7,8,8,9,9,10,10,11,11,12,12,13,13,14,14,15,15,16,16,17,17,18,18,24,24,26,26,27,27,29,29,30,30],"right_children":[2,4,6,8,10,12,14,16,18,20,22,24,26,28,30,32,34,36,38,-1,-1,-1,-1,-1,40,-1,42,44,-1,46,48,-1,-1,-1,-1,-1,-1,-1,-1,-1,-1,-1,-1,-1,-1,-1,-1,-1,-1],"split_conditions":[8.2323164E-1,1.5974501E0,-5.837662E-1,-7.5624573E-1,-3.822706E-1,1.5741696E0,7.703007E-1,1.0366852E0,4.311614E-1,-5.847771E-1,1.1961321E-2,-8.8131833E-1,-1.8638881E0,2.5166516E0,-5.919955E-1,-4.562439E-1,-9.2931813E-1,2.0262147E-1,5.708233E-1,-6.610257E-2,5.2420862E-2,-2.167016E-2,-1.1093604E-1,3.6832735E-2,1.0109661E0,9.473772E-2,-1.10289E0,-5.596401E-1,-1.635599E-2,-1.6942723E-1,1.3249977E0,2.648761E-2,-7.9223886E-2,-7.17411E-2,1.23446204E-1,2.9441837E-2,-3.603524E-2,-8.988819E-2,-1.2765584E-2,-1.18468784E-1,-3.406691E-2,-5.885716E-2,6.622402E-2,2.726256E-2,1.0530287E-1,1.4585756E-2,-6.263119E-2,9.102138E-2,-3.899458E-3],"split_indices":[10,6,4,9,3,10,8,3,1,10,5,4,7,0,6,4,2,4,1,0,0,0,0,0,10,0,0,3,0,3,1,0,0,0,0,0,0,0,0,0,0,0,0,0,0,0,0,0,0],"split_type":[0,0,0,0,0,0,0,0,0,0,0,0,0,0,0,0,0,0,0,0,0,0,0,0,0,0,0,0,0,0,0,0,0,0,0,0,0,0,0,0,0,0,0,0,0,0,0,0,0],"sum_hessian":[2.3911139E2,2.0166489E2,3.7446507E1,1.8717052E2,1.4494365E1,1.1372181E1,2.6074326E1,2.9042286E1,1.5812823E2,2.8102343E0,1.1684131E1,5.7782507E0,5.5939302E0,1.8675798E1,7.398526E0,2.5970592E1,3.0716934E0,1.08595116E2,4.9533123E1,1.2153279E0,1.5949063E0,1.8644884E0,9.819642E0,1.0101162E0,4.7681346E0,3.097646E0,2.4962842E0,1.7674078E1,1.0017216E0,3.381134E0,4.017392E0,3.5968204E0,2.2373772E1,1.1055746E0,1.9661187E0,8.8395325E1,2.019979E1,6.7216387E0,4.2811485E1,1.6840136E0,3.0841208E0,1.1941384E0,1.3021458E0,1.1142589E0,1.6559818E1,1.8399203E0,1.5412136E0,3.008048E0,1.009344E0],"tree_param":{"num_deleted":"0","num_feature":"11","num_nodes":"49","size_leaf_vector":"1"}},{"base_weights":[-1.6858052E-3,-8.543396E-2,6.240316E-1,-3.1838436E-2,-7.898647E-1,1.6818474E-1,8.1956637E-1,6.7430705E-2,-3.517057E-1,-9.088474E-1,2.0710157E-2,5.9554374E-1,-3.1157795E-1,9.0516806E-1,-1.1113496E-2,-1.8709286E-1,2.1112567E-1,-5.1470166E-1,8.872857E-2,-1.4075159E-2,-1.0027066E0,8.595212E-2,-2.4625177E-2,-7.9996365E-1,3.7821915E-2,9.6410364E-1,3.7693033E-1,-8.967998E-2,-3.5102682E-3,3.442348E-2,-4.7398157E-2,-8.835652E-2,-2.5327448E-2,4.2349614E-2,-8.605044E-2,-3.0228123E-2,-1.07318595E-1,-9.726017E-2,-2.9006843E-2,4.6272926E-2,1.0522562E-1,6.871254E-2,-1.8230516E-2],"categories":[],"categories_nodes":[],"categories_segments":[],"categories_sizes":[],"default_left":[0,0,0,0,0,0,0,0,0,0,0,0,0,0,0,0,0,0,0,0,0,0,0,0,0,0,0,0,0,0,0,0,0,0,0,0,0,0,0,0,0,0,0],"id":18,"left_children":[1,3,5,7,9,11,13,15,17,19,-1,21,23,25,-1,27,29,31,33,-1,35,-1,-1,37,-1,39,41,-1,-1,-1,-1,-1,-1,-1,-1,-1,-1,-1,-1,-1,-1,-1,-1],"loss_changes":[1.2423306E1,7.8681903E0,2.356617E0,6.2260466E0,1.9367275E0,2.1659536E0,1.6403265E0,5.5221777E0,3.3783631E0,8.216057E-1,0E0,1.4231701E0,2.056742E0,1.9099903E-1,0E0,5.860667E0,8.943684E0,3.0578356E0,4.620239E0,0E0,2.549839E-1,0E0,0E0,1.4496326E-2,0E0,1.9278717E-1,7.201643E-1,0E0,0E0,0E0,0E0,0E0,0E0,0E0,0E0,0E0,0E0,0E0,0E0,0E0,0E0,0E0,0E0],"parents":[2147483647,0,0,1,1,2,2,3,3,4,4,5,5,6,6,7,7,8,8,9,9,11,11,12,12,13,13,15,15,16,16,17,17,18,18,20,20,23,23,25,25,26,26],"right_children":[2,4,6,8,10,12,14,16,18,20,-1,22,24,26,-1,28,30,32,34,-1,36,-1,-1,38,-1,40,42,-1,-1,-1,-1,-1,-1,-1,-1,-1,-1,-1,-1,-1,-1,-1,-1],"split_conditions":[1.0109661E0,1.5974501E0,-9.8798394E-1,7.104852E-1,3.0796041E0,2.3563471E-1,2.6684844E0,-6.7864436E-1,-2.1573618E-2,-4.532184E-1,2.0710157E-2,1.3237695E0,1.7421924E0,6.642772E-1,-1.1113496E-2,-2.2084567E-1,8.9988625E-1,-9.806686E-1,2.162969E0,-1.4075159E-2,-3.0746785E-1,8.595212E-2,-2.4625177E-2,-5.919955E-1,3.7821915E-2,-6.0502E-1,-3.311766E-1,-8.967998E-2,-3.5102682E-3,3.442348E-2,-4.7398157E-2,-8.835652E-2,-2.5327448E-2,4.2349614E-2,-8.605044E-2,-3.0228123E-2,-1.07318595E-1,-9.726017E-2,-2.9006843E-2,4.6272926E-2,1.0522562E-1,6.871254E-2,-1.8230516E-2],"split_indices":[10,6,0,1,9,1,3,10,10,3,0,6,8,7,0,7,8,2,1,0,4,0,0,6,0,4,8,0,0,0,0,0,0,0,0,0,0,0,0,0,0,0,0],"split_type":[0,0,0,0,0,0,0,0,0,0,0,0,0,0,0,0,0,0,0,0,0,0,0,0,0,0,0,0,0,0,0,0,0,0,0,0,0,0,0,0,0,0,0],"sum_hessian":[2.350565E2,2.0807103E2,2.6985477E1,1.9433087E2,1.3740167E1,8.659009E0,1.8326468E1,1.4890741E2,4.5423447E1,1.2354151E1,1.386016E0,4.4519806E0,4.207028E0,1.6807981E1,1.5184872E0,5.3623444E1,9.528397E1,3.3030785E1,1.2392662E1,1.6174415E0,1.073671E1,3.3731444E0,1.0788363E0,2.369606E0,1.837422E0,1.4378623E1,2.429358E0,8.594004E0,4.502944E1,8.0199585E1,1.5084391E1,1.2713195E1,2.0317593E1,9.571072E0,2.821591E0,1.4651308E0,9.271579E0,1.0923197E0,1.2772864E0,3.0844977E0,1.1294125E1,1.4155166E0,1.0138414E0],"tree_param":{"num_deleted":"0","num_feature":"11","num_nodes":"43","size_leaf_vector":"1"}},{"base_weights":[-2.54507E-3,-7.995927E-2,5.9509325E-1,-3.0376103E-2,-7.586827E-1,1.5219389E-1,7.916299E-1,-4.3198442E-1,4.1640274E-2,-7.77741E-3,-9.386025E-1,5.645134E-1,-2.9944852E-1,9.192649E-1,7.91477E-2,-1.0034322E0,-1.6781348E-1,3.2453257E-1,-5.9401244E-2,-5.0884973E-2,6.378106E-2,-1.5771134E-2,-1.0650491E-1,8.241834E-2,-2.3332877E-2,-7.601614E-1,3.5679918E-2,4.11674E-1,1.0021148E0,4.907283E-2,-5.3057607E-2,-1.8393038E-2,-1.1467282E-1,-3.518521E-2,9.885732E-2,5.514491E-3,8.916741E-2,3.1695776E-2,-1.8408291E-2,-9.315742E-2,-2.725535E-2,7.5008065E-2,-2.1832408E-2,2.927792E-2,1.0384476E-1],"categories":[],"categories_nodes":[],"categories_segments":[],"categories_sizes":[],"default_left":[0,0,0,0,0,0,0,0,0,0,0,0,0,0,0,0,0,0,0,0,0,0,0,0,0,0,0,0,0,0,0,0,0,0,0,0,0,0,0,0,0,0,0,0,0],"id":19,"left_children":[1,3,5,7,9,11,13,15,17,19,21,23,25,27,29,31,33,35,37,-1,-1,-1,-1,-1,-1,39,-1,41,43,-1,-1,-1,-1,-1,-1,-1,-1,-1,-1,-1,-1,-1,-1,-1,-1],"loss_changes":[1.0804973E1,6.934109E0,2.2108526E0,5.6201935E0,1.8885317E0,1.932547E0,1.5925684E0,4.291027E0,4.7401195E0,1.5281484E0,9.489689E-1,1.289733E0,1.835199E0,2.3661804E-1,1.2331508E0,8.621721E-1,4.902682E0,6.6151247E0,5.8084326E0,0E0,0E0,0E0,0E0,0E0,0E0,2.6819825E-2,0E0,9.873889E-1,2.0002365E-2,0E0,0E0,0E0,0E0,0E0,0E0,0E0,0E0,0E0,0E0,0E0,0E0,0E0,0E0,0E0,0E0],"parents":[2147483647,0,0,1,1,2,2,3,3,4,4,5,5,6,6,7,7,8,8,9,9,10,10,11,11,12,12,13,13,14,14,15,15,16,16,17,17,18,18,25,25,27,27,28,28],"right_children":[2,4,6,8,10,12,14,16,18,20,22,24,26,28,30,32,34,36,38,-1,-1,-1,-1,-1,-1,40,-1,42,44,-1,-1,-1,-1,-1,-1,-1,-1,-1,-1,-1,-1,-1,-1,-1,-1],"split_conditions":[1.0109661E0,1.5974501E0,-9.8798394E-1,-7.5624573E-1,-3.822706E-1,2.3563471E-1,1.3914242E0,-1.0833695E0,-2.8974745E-1,1.8136775E-1,1.1961321E-2,1.3237695E0,1.7421924E0,-6.0502E-1,-2.0159104E-1,-4.562439E-1,1.0366852E0,-2.7584893E-1,-6.582015E-1,-5.0884973E-2,6.378106E-2,-1.5771134E-2,-1.0650491E-1,8.241834E-2,-2.3332877E-2,-5.919955E-1,3.5679918E-2,-7.325423E-1,-1.0399771E0,4.907283E-2,-5.3057607E-2,-1.8393038E-2,-1.1467282E-1,-3.518521E-2,9.885732E-2,5.514491E-3,8.916741E-2,3.1695776E-2,-1.8408291E-2,-9.315742E-2,-2.725535E-2,7.5008065E-2,-2.1832408E-2,2.927792E-2,1.0384476E-1],"split_indices":[10,6,0,9,3,1,3,2,7,4,5,6,8,4,8,4,3,3,1,0,0,0,0,0,0,6,0,4,5,0,0,0,0,0,0,0,0,0,0,0,0,0,0,0,0],"split_type":[0,0,0,0,0,0,0,0,0,0,0,0,0,0,0,0,0,0,0,0,0,0,0,0,0,0,0,0,0,0,0,0,0,0,0,0,0,0,0,0,0,0,0,0,0],"sum_hessian":[2.3151328E2,2.0573048E2,2.578279E1,1.9269797E2,1.303252E1,8.469955E0,1.7312834E1,2.8540405E1,1.6415756E2,2.72071E0,1.031181E1,4.2970877E0,4.172868E0,1.4436443E1,2.876391E0,8.138023E0,2.0402382E1,4.2619946E1,1.2153762E2,1.6510522E0,1.0696579E0,1.7502316E0,8.561579E0,3.217038E0,1.0800498E0,2.3586519E0,1.814216E0,2.863253E0,1.1573191E1,1.8337328E0,1.042658E0,1.5510753E0,6.5869484E0,1.820137E1,2.2010114E0,2.9638927E1,1.2981019E1,2.9860325E1,9.167729E1,1.0714854E0,1.2871665E0,1.738696E0,1.1245571E0,1.005271E0,1.056792E1],"tree_param":{"num_deleted":"0","num_feature":"11","num_nodes":"45","size_leaf_vector":"1"}},{"base_weights":[-1.9218196E-3,-6.812232E-2,6.186563E-1,-2.982593E-2,-8.624342E-1,8.678555E-1,2.0288795E-1,-1.5642995E-1,1.7468011E-1,6.7400285E-3,-9.8927066E-2,9.570628E-2,6.561964E-4,-1.6729374E-1,8.372389E-2,-3.9787725E-1,2.4584994E-2,3.5842502E-1,-3.8135916E-1,-7.917028E-2,2.6650232E-1,-4.574154E-2,1.0251027E-1,3.419168E-2,-3.5738945E-2,5.4715466E-2,-2.3065235E-3,-5.3132404E-2,6.967049E-2,-8.376795E-3,5.5695664E-2],"categories":[],"categories_nodes":[],"categories_segments":[],"categories_sizes":[],"default_left":[0,0,0,0,0,0,0,0,0,0,0,0,0,0,0,0,0,0,0,0,0,0,0,0,0,0,0,0,0,0,0],"id":20,"left_children":[1,3,5,7,9,11,13,15,17,-1,-1,-1,-1,19,-1,21,23,25,27,-1,29,-1,-1,-1,-1,-1,-1,-1,-1,-1,-1],"loss_changes":[9.462195E0,6.3043423E0,2.1242132E0,5.1941457E0,1.1912766E0,1.0368423E0,2.4003158E0,5.419756E0,7.9808464E0,0E0,0E0,0E0,0E0,2.083136E0,0E0,4.967269E0,8.811489E0,4.20453E0,3.5314803E0,0E0,5.376916E-1,0E0,0E0,0E0,0E0,0E0,0E0,0E0,0E0,0E0,0E0],"parents":[2147483647,0,0,1,1,2,2,3,3,4,4,5,5,6,6,7,7,8,8,13,13,15,15,16,16,17,17,18,18,20,20],"right_children":[2,4,6,8,10,12,14,16,18,-1,-1,-1,-1,20,-1,22,24,26,28,-1,30,-1,-1,-1,-1,-1,-1,-1,-1,-1,-1],"split_conditions":[1.1048334E0,1.9319488E0,-1.5541865E-1,-4.808883E-2,-1.691825E0,2.6684844E0,-1.0710191E-1,-3.7056175E-1,2.0262147E-1,6.7400285E-3,-9.8927066E-2,9.570628E-2,6.561964E-4,-6.0502E-1,8.372389E-2,2.4980235E0,7.5962E-2,9.5972806E-2,1.597403E0,-7.917028E-2,-1.045437E0,-4.574154E-2,1.0251027E-1,3.419168E-2,-3.5738945E-2,5.4715466E-2,-2.3065235E-3,-5.3132404E-2,6.967049E-2,-8.376795E-3,5.5695664E-2],"split_indices":[10,6,1,9,8,3,9,5,4,0,0,0,0,4,0,4,7,1,0,0,0,0,0,0,0,0,0,0,0,0,0],"split_type":[0,0,0,0,0,0,0,0,0,0,0,0,0,0,0,0,0,0,0,0,0,0,0,0,0,0,0,0,0,0,0],"sum_hessian":[2.282955E2,2.0709387E2,2.1201622E1,1.9855827E2,8.535599E0,1.2576367E1,8.625254E0,1.22782265E2,7.577601E1,1.0808101E0,7.4547887E0,1.1295282E1,1.2810847E0,5.9117E0,2.7135546E0,5.209593E1,7.068634E1,5.7222164E1,1.8553844E1,2.0851965E0,3.8265033E0,5.065505E1,1.4408796E0,3.866751E1,3.2018826E1,3.799242E1,1.9229744E1,1.6733297E1,1.8205476E0,2.0572188E0,1.7692844E0],"tree_param":{"num_deleted":"0","num_feature":"11","num_nodes":"31","size_leaf_vector":"1"}},{"base_weights":[-8.275757E-4,-6.739615E-2,5.463654E-1,-2.3645628E-2,-7.082459E-1,7.3996794E-1,1.2234167E-1,-3.8943517E-1,4.076741E-2,1.7945273E-2,-8.4993E-1,8.76266E-1,-1.3471429E-3,-2.0194732E-1,7.770606E-2,-9.610021E-1,-1.3536483E-1,1.3961898E-1,-1.7828418E-1,-1.3732865E-2,-9.618423E-1,9.8253265E-2,-9.622516E-3,4.0914577E-2,-5.1881876E-2,-8.907502E-2,1.728889E-1,-1.8054264E-2,-1.1055549E-1,-3.1242562E-2,9.362724E-2,6.8046704E-2,5.763455E-3,7.1658925E-3,-4.7841813E-2,-2.6364876E-2,-1.0244218E-1,-1.4200191E-2,5.7900846E-2],"categories":[],"categories_nodes":[],"categories_segments":[],"categories_sizes":[],"default_left":[0,0,0,0,0,0,0,0,0,0,0,0,0,0,0,0,0,0,0,0,0,0,0,0,0,0,0,0,0,0,0,0,0,0,0,0,0,0,0],"id":21,"left_children":[1,3,5,7,9,11,13,15,17,-1,19,21,23,25,-1,27,29,31,33,-1,35,-1,-1,-1,-1,-1,37,-1,-1,-1,-1,-1,-1,-1,-1,-1,-1,-1,-1],"loss_changes":[8.26693E0,5.6559687E0,1.930202E0,4.5027266E0,1.7744164E0,1.6886787E0,2.0495477E0,4.0242286E0,3.5505972E0,0E0,7.6866245E-1,1.5526199E0,9.7533685E-1,1.8980849E0,0E0,7.750659E-1,4.2711053E0,4.960433E0,3.8652825E0,0E0,1.4915371E-1,0E0,0E0,0E0,0E0,0E0,7.487465E-1,0E0,0E0,0E0,0E0,0E0,0E0,0E0,0E0,0E0,0E0,0E0,0E0],"parents":[2147483647,0,0,1,1,2,2,3,3,4,4,5,5,6,6,7,7,8,8,10,10,11,11,12,12,13,13,15,15,16,16,17,17,18,18,20,20,26,26],"right_children":[2,4,6,8,10,12,14,16,18,-1,20,22,24,26,-1,28,30,32,34,-1,36,-1,-1,-1,-1,-1,38,-1,-1,-1,-1,-1,-1,-1,-1,-1,-1,-1,-1],"split_conditions":[1.0109661E0,1.5974501E0,2.3563471E-1,-7.5624573E-1,-1.4326539E0,1.3914242E0,-1.0710191E-1,-1.0833695E0,4.311614E-1,1.7945273E-2,1.1961321E-2,2.0661564E0,-2.0159104E-1,6.5462047E-1,7.770606E-2,-4.562439E-1,1.0366852E0,-9.806686E-1,-7.239163E-1,-1.3732865E-2,-7.419987E-1,9.8253265E-2,-9.622516E-3,4.0914577E-2,-5.1881876E-2,-8.907502E-2,1.7619041E0,-1.8054264E-2,-1.1055549E-1,-3.1242562E-2,9.362724E-2,6.8046704E-2,5.763455E-3,7.1658925E-3,-4.7841813E-2,-2.6364876E-2,-1.0244218E-1,-1.4200191E-2,5.7900846E-2],"split_indices":[10,6,1,9,8,3,9,2,1,0,5,8,8,1,0,4,3,2,2,0,1,0,0,0,0,0,10,0,0,0,0,0,0,0,0,0,0,0,0],"split_type":[0,0,0,0,0,0,0,0,0,0,0,0,0,0,0,0,0,0,0,0,0,0,0,0,0,0,0,0,0,0,0,0,0,0,0,0,0,0,0],"sum_hessian":[2.2494135E2,2.0132594E2,2.3615406E1,1.894305E2,1.1895436E1,1.570132E1,7.914087E0,2.7607393E1,1.618231E2,1.6005958E0,1.0294841E1,1.3109049E1,2.5922701E0,5.7550855E0,2.1590016E0,7.6392965E0,1.9968098E1,1.11754295E2,5.0068817E1,1.6996202E0,8.595221E0,1.1808391E1,1.3006583E0,1.5622925E0,1.0299777E0,1.5430989E0,4.2119865E0,1.5452524E0,6.094044E0,1.7744698E1,2.2234E0,1.374949E1,9.80048E1,2.7733982E1,2.2334835E1,1.1358359E0,7.4593844E0,2.7387784E0,1.473208E0],"tree_param":{"num_deleted":"0","num_feature":"11","num_nodes":"39","size_leaf_vector":"1"}},{"base_weights":[-1.0015611E-3,-2.588966E-1,1.2875637E-1,-6.533095E-1,-1.0115779E-1,3.185791E-1,-7.541761E-2,-8.464654E-1,2.6903406E-1,2.5458604E-1,-3.5898796E-1,1.4533387E-1,5.757969E-1,1.3734153E-1,-2.373976E-1,-3.242357E-1,-1.1089038E0,-3.319035E-1,1.00809015E-1,-7.795237E-1,5.1331747E-1,3.6002E-1,-5.374792E-1,5.476199E-1,-3.4158662E-2,8.31913E-1,-1.17265284E-1,-5.4291964E-1,3.3133358E-1,7.449661E-2,-5.264544E-1,-1.1913814E-1,4.0401183E-2,-1.1877381E-1,-2.0933038E-2,2.5374994E-2,-7.366094E-2,-1.4652873E-2,-9.113501E-2,3.1222978E-3,9.4522625E-2,1.2794934E-1,-3.7719678E-2,-6.3888066E-2,8.024916E-2,-1.4197776E-2,8.6944275E-2,4.8350208E-2,-2.9278476E-2,1.07523315E-1,1.183845E-2,8.05075E-2,-5.773058E-2,-8.303982E-2,5.8391478E-2,1.23647094E-1,5.7146302E-3,-4.66002E-2,4.146331E-2,-6.4470045E-2,5.1676888E-2],"categories":[],"categories_nodes":[],"categories_segments":[],"categories_sizes":[],"default_left":[0,0,0,0,0,0,0,0,0,0,0,0,0,0,0,0,0,0,0,0,0,0,0,0,0,0,0,0,0,0,0,0,0,0,0,0,0,0,0,0,0,0,0,0,0,0,0,0,0,0,0,0,0,0,0,0,0,0,0,0,0],"id":22,"left_children":[1,3,5,7,9,11,13,15,17,19,21,23,25,27,29,31,33,35,-1,37,39,41,43,45,47,49,51,53,55,57,59,-1,-1,-1,-1,-1,-1,-1,-1,-1,-1,-1,-1,-1,-1,-1,-1,-1,-1,-1,-1,-1,-1,-1,-1,-1,-1,-1,-1,-1,-1],"loss_changes":[7.5068083E0,4.6053605E0,5.8082075E0,4.0166636E0,5.1194715E0,3.3712282E0,2.5384543E0,2.0835743E0,2.3071446E0,6.719987E0,4.3257375E0,3.4604845E0,5.5763416E0,4.4110928E0,3.794078E0,5.138802E0,5.634289E-1,9.458257E-1,0E0,2.940476E-1,4.0300517E0,5.2291775E0,4.072083E0,3.400117E0,4.6802006E0,3.8069744E0,4.3705463E0,2.912365E0,6.275087E0,4.0372167E0,3.014915E0,0E0,0E0,0E0,0E0,0E0,0E0,0E0,0E0,0E0,0E0,0E0,0E0,0E0,0E0,0E0,0E0,0E0,0E0,0E0,0E0,0E0,0E0,0E0,0E0,0E0,0E0,0E0,0E0,0E0,0E0],"parents":[2147483647,0,0,1,1,2,2,3,3,4,4,5,5,6,6,7,7,8,8,9,9,10,10,11,11,12,12,13,13,14,14,15,15,16,16,17,17,19,19,20,20,21,21,22,22,23,23,24,24,25,25,26,26,27,27,28,28,29,29,30,30],"right_children":[2,4,6,8,10,12,14,16,18,20,22,24,26,28,30,32,34,36,-1,38,40,42,44,46,48,50,52,54,56,58,60,-1,-1,-1,-1,-1,-1,-1,-1,-1,-1,-1,-1,-1,-1,-1,-1,-1,-1,-1,-1,-1,-1,-1,-1,-1,-1,-1,-1,-1,-1],"split_conditions":[-6.7864436E-1,-3.540054E-3,6.804042E-2,2.0039205E-1,-2.2708786E-1,3.6500272E-1,3.167512E-1,-7.0071876E-1,-2.102454E-1,-6.382196E-1,-6.582015E-1,-6.0775566E-1,2.5945562E-1,-9.791044E-1,-3.957502E-1,-5.596401E-1,1.5062233E0,5.5984527E-1,1.00809015E-1,3.6746952E-1,-1.3679826E-1,-4.532184E-1,4.0874405E0,-7.744493E-1,-1.1544087E-1,-4.9060723E-1,-3.822706E-1,1.1760508E0,-5.2555496E-1,-1.10289E0,1.2325425E0,-1.1913814E-1,4.0401183E-2,-1.1877381E-1,-2.0933038E-2,2.5374994E-2,-7.366094E-2,-1.4652873E-2,-9.113501E-2,3.1222978E-3,9.4522625E-2,1.2794934E-1,-3.7719678E-2,-6.3888066E-2,8.024916E-2,-1.4197776E-2,8.6944275E-2,4.8350208E-2,-2.9278476E-2,1.07523315E-1,1.183845E-2,8.05075E-2,-5.773058E-2,-8.303982E-2,5.8391478E-2,1.23647094E-1,5.7146302E-3,-4.66002E-2,4.146331E-2,-6.4470045E-2,5.1676888E-2],"split_indices":[10,7,1,2,6,9,8,0,7,9,1,7,6,8,7,3,6,2,0,7,8,3,3,6,10,1,3,2,8,0,6,0,0,0,0,0,0,0,0,0,0,0,0,0,0,0,0,0,0,0,0,0,0,0,0,0,0,0,0,0,0],"split_type":[0,0,0,0,0,0,0,0,0,0,0,0,0,0,0,0,0,0,0,0,0,0,0,0,0,0,0,0,0,0,0,0,0,0,0,0,0,0,0,0,0,0,0,0,0,0,0,0,0,0,0,0,0,0,0,0,0,0,0,0,0],"sum_hessian":[2.2232925E2,7.408649E1,1.4824277E2,2.0267513E1,5.3818977E1,7.653087E1,7.171189E1,1.6826086E1,3.441428E0,2.262058E1,3.1198397E1,4.6665226E1,2.9865648E1,3.1063023E1,4.064887E1,6.375288E0,1.0450798E1,2.2019215E0,1.2395065E0,4.1241436E0,1.8496437E1,6.002358E0,2.5196037E1,1.376457E1,3.2900654E1,2.1660736E1,8.204912E0,6.4936013E0,2.4569422E1,1.9909096E1,2.0739773E1,2.6198268E0,3.7554612E0,9.314211E0,1.1365875E0,1.0522308E0,1.1496906E0,1.0747948E0,3.0493488E0,9.2471285E0,9.249309E0,2.3436868E0,3.6586714E0,2.3909885E1,1.2861528E0,4.557549E0,9.207022E0,1.0671432E1,2.2229223E1,1.577454E1,5.8861957E0,2.4809062E0,5.7240057E0,5.3832846E0,1.1103164E0,4.89631E0,1.9673111E1,7.546763E0,1.2362332E1,1.8971432E1,1.7683414E0],"tree_param":{"num_deleted":"0","num_feature":"11","num_nodes":"61","size_leaf_vector":"1"}},{"base_weights":[2.353709E-4,-5.436949E-2,5.5516565E-1,-2.1257557E-2,-8.1104565E-1,8.1508154E-1,1.7582034E-1,-3.4458852E-1,3.514017E-2,-2.3212824E-3,-9.948797E-2,9.165322E-1,-1.1604037E-3,-9.75242E-2,7.68472E-2,4.740486E-1,-4.996219E-1,5.7835635E-2,-8.785043E-1,2.1751177E-2,9.772488E-2,-6.755716E-1,3.0708236E-1,-2.2822937E-3,9.097203E-2,-6.50255E-2,4.1757073E-2,3.308445E-2,-4.019354E-3,-1.1449943E-1,-6.692912E-3,-1.1002725E-1,7.3915557E-3,-1.0625742E-2,7.842225E-2],"categories":[],"categories_nodes":[],"categories_segments":[],"categories_sizes":[],"default_left":[0,0,0,0,0,0,0,0,0,0,0,0,0,0,0,0,0,0,0,0,0,0,0,0,0,0,0,0,0,0,0,0,0,0,0],"id":23,"left_children":[1,3,5,7,9,11,13,15,17,-1,-1,19,-1,21,-1,23,25,27,29,-1,-1,31,33,-1,-1,-1,-1,-1,-1,-1,-1,-1,-1,-1,-1],"loss_changes":[6.7100735E0,5.0340257E0,1.8126378E0,3.5530355E0,1.1971722E0,9.7485065E-1,1.5881315E0,3.9088583E0,3.4980786E0,0E0,0E0,2.2258186E-1,0E0,1.9100726E0,0E0,1.129092E0,3.6996326E0,4.3798566E0,8.082385E-1,0E0,0E0,1.1349136E0,1.06349E0,0E0,0E0,0E0,0E0,0E0,0E0,0E0,0E0,0E0,0E0,0E0,0E0],"parents":[2147483647,0,0,1,1,2,2,3,3,4,4,5,5,6,6,7,7,8,8,11,11,13,13,15,15,16,16,17,17,18,18,21,21,22,22],"right_children":[2,4,6,8,10,12,14,16,18,-1,-1,20,-1,22,-1,24,26,28,30,-1,-1,32,34,-1,-1,-1,-1,-1,-1,-1,-1,-1,-1,-1,-1],"split_conditions":[1.1048334E0,1.9319488E0,5.759223E-1,-7.5624573E-1,-3.822706E-1,2.6684844E0,2.4697655E-1,-4.562439E-1,2.0013635E0,-2.3212824E-3,-9.948797E-2,-9.33285E-1,-1.1604037E-3,-6.262737E-1,7.68472E-2,1.1922725E-1,1.0366852E0,-2.8974745E-1,-9.305309E-1,2.1751177E-2,9.772488E-2,-1.7930022E-1,1.7421924E0,-2.2822937E-3,9.097203E-2,-6.50255E-2,4.1757073E-2,3.308445E-2,-4.019354E-3,-1.1449943E-1,-6.692912E-3,-1.1002725E-1,7.3915557E-3,-1.0625742E-2,7.842225E-2],"split_indices":[10,6,8,9,3,3,9,4,8,0,0,9,0,4,0,10,3,7,0,0,0,5,8,0,0,0,0,0,0,0,0,0,0,0,0],"split_type":[0,0,0,0,0,0,0,0,0,0,0,0,0,0,0,0,0,0,0,0,0,0,0,0,0,0,0,0,0,0,0,0,0,0,0],"sum_hessian":[2.1944467E2,2.0060706E2,1.883761E1,1.9318158E2,7.4254775E0,1.04968405E1,8.34077E0,2.7932606E1,1.6524898E2,1.6179436E0,5.8075337E0,9.252671E0,1.2441688E0,6.279818E0,2.0609517E0,4.1199474E0,2.3812658E1,1.6215758E2,3.0913913E0,1.1056708E0,8.147E0,2.3099592E0,3.969859E0,2.3674967E0,1.7524507E0,2.0703505E1,3.1091552E0,4.221497E1,1.1994261E2,2.0179462E0,1.073445E0,1.1757056E0,1.1342536E0,2.5436418E0,1.4262173E0],"tree_param":{"num_deleted":"0","num_feature":"11","num_nodes":"35","size_leaf_vector":"1"}},{"base_weights":[3.267956E-4,-5.5065285E-2,4.8943815E-1,-2.464997E-2,-7.9909396E-1,1.0203428E-1,6.8424296E-1,-1.09449156E-1,1.9634421E-1,7.491497E-3,-9.493891E-2,-1.3200422E-1,7.0137106E-2,8.3138025E-1,1.1882573E-2,-4.203587E-2,-5.0291085E-1,3.905744E-1,-2.5623575E-1,-6.094278E-1,1.9187848E-1,2.7132732E-1,9.390175E-2,4.139665E-2,-5.1776823E-2,-8.3463974E-2,8.021595E-4,-1.3120581E-1,-9.945713E-3,5.8450956E-2,-1.0013755E-2,6.409982E-2,-5.5409104E-2,-1.2713887E-2,-7.923508E-2,7.481952E-2,-2.1125507E-2,6.36931E-2,-2.7721433E-2],"categories":[],"categories_nodes":[],"categories_segments":[],"categories_sizes":[],"default_left":[0,0,0,0,0,0,0,0,0,0,0,0,0,0,0,0,0,0,0,0,0,0,0,0,0,0,0,0,0,0,0,0,0,0,0,0,0,0,0],"id":24,"left_children":[1,3,5,7,9,11,13,15,17,-1,-1,19,-1,21,23,25,27,29,31,33,35,37,-1,-1,-1,-1,-1,-1,-1,-1,-1,-1,-1,-1,-1,-1,-1,-1,-1],"loss_changes":[5.9355597E0,4.4338603E0,1.6121435E0,3.5840392E0,1.0822282E0,1.3034334E0,1.4398923E0,3.6399808E0,4.765627E0,0E0,0E0,1.2070341E0,0E0,4.6914768E-1,9.90736E-1,4.7253003E0,6.430707E0,3.6304417E0,4.775879E0,1.717714E-1,1.2706256E0,8.468625E-1,0E0,0E0,0E0,0E0,0E0,0E0,0E0,0E0,0E0,0E0,0E0,0E0,0E0,0E0,0E0,0E0,0E0],"parents":[2147483647,0,0,1,1,2,2,3,3,4,4,5,5,6,6,7,7,8,8,11,11,13,13,14,14,15,15,16,16,17,17,18,18,19,19,20,20,21,21],"right_children":[2,4,6,8,10,12,14,16,18,-1,-1,20,-1,22,24,26,28,30,32,34,36,38,-1,-1,-1,-1,-1,-1,-1,-1,-1,-1,-1,-1,-1,-1,-1,-1,-1],"split_conditions":[1.0109661E0,1.9319488E0,-9.8798394E-1,1.8796347E-1,-1.691825E0,-1.0710191E-1,1.3914242E0,1.0942646E0,1.6011404E-1,7.491497E-3,-9.493891E-2,-6.9003487E-1,7.0137106E-2,-6.0502E-1,-2.0159104E-1,-1.1103243E0,-4.532184E-1,2.2904666E-1,-6.582015E-1,-1.7101841E0,2.3563471E-1,-7.325423E-1,9.390175E-2,4.139665E-2,-5.1776823E-2,-8.3463974E-2,8.021595E-4,-1.3120581E-1,-9.945713E-3,5.8450956E-2,-1.0013755E-2,6.409982E-2,-5.5409104E-2,-1.2713887E-2,-7.923508E-2,7.481952E-2,-2.1125507E-2,6.36931E-2,-2.7721433E-2],"split_indices":[10,6,0,9,8,9,3,8,4,0,0,4,0,4,8,9,3,6,1,7,1,4,0,0,0,0,0,0,0,0,0,0,0,0,0,0,0,0,0],"split_type":[0,0,0,0,0,0,0,0,0,0,0,0,0,0,0,0,0,0,0,0,0,0,0,0,0,0,0,0,0,0,0,0,0,0,0,0,0,0,0],"sum_hessian":[2.17087E2,1.9579999E2,2.128702E1,1.8910274E2,6.697243E0,7.6324067E0,1.36546135E1,1.3702766E2,5.2075077E1,1.0562716E0,5.6409717E0,6.049753E0,1.5826536E0,1.1008941E1,2.6456723E0,1.1792924E2,1.9098427E1,3.653335E1,1.5541726E1,2.0889206E0,3.9608326E0,2.342309E0,8.666632E0,1.6281102E0,1.0175623E0,6.0743937E0,1.1185484E2,5.6050816E0,1.3493346E1,2.6047804E1,1.0485547E1,3.5863788E0,1.1955348E1,1.0405304E0,1.0483902E0,1.3045833E0,2.6562493E0,1.3088343E0,1.0334748E0],"tree_param":{"num_deleted":"0","num_feature":"11","num_nodes":"39","size_leaf_vector":"1"}},{"base_weights":[-1.1375311E-4,-2.2292976E-1,1.1215902E-1,-6.027824E-1,-7.257474E-2,2.909046E-1,-7.470261E-2,-7.9591566E-1,2.8100798E-1,7.2744167E-1,-1.832191E-1,3.459578E-1,-4.5687225E-1,5.6262452E-2,-6.5230894E-1,-3.0875558E-1,-1.0528083E0,1.0203042E-1,-3.1925756E-1,-5.3982157E-2,1.2970616E0,-4.717731E-1,3.574162E-1,7.868978E-1,2.0205957E-1,-9.21175E-1,6.777215E-2,2.6860526E-1,-2.7638736E-1,-1.1824228E0,3.1573543E-1,-1.1491896E-1,3.7538897E-2,-1.1330147E-1,-1.869985E-2,-7.1257584E-2,2.4762537E-2,1.5167367E-1,3.352002E-2,2.2834813E-2,-7.068863E-2,7.7335194E-2,-4.692694E-2,-3.5659354E-2,9.1374606E-2,1.3966243E-2,1.2239263E-1,-2.3300216E-2,-1.0707595E-1,9.3048374E-4,8.743768E-2,-6.074017E-2,3.0184532E-2,-1.5322195E-1,-3.960223E-2,9.2442535E-2,-9.814292E-2],"categories":[],"categories_nodes":[],"categories_segments":[],"categories_sizes":[],"default_left":[0,0,0,0,0,0,0,0,0,0,0,0,0,0,0,0,0,0,0,0,0,0,0,0,0,0,0,0,0,0,0,0,0,0,0,0,0,0,0,0,0,0,0,0,0,0,0,0,0,0,0,0,0,0,0,0,0],"id":25,"left_children":[1,3,5,7,9,11,13,15,17,19,21,23,25,27,29,31,33,-1,35,-1,37,39,41,43,45,47,-1,49,51,53,55,-1,-1,-1,-1,-1,-1,-1,-1,-1,-1,-1,-1,-1,-1,-1,-1,-1,-1,-1,-1,-1,-1,-1,-1,-1,-1],"loss_changes":[5.4170184E0,4.0999327E0,4.831049E0,3.7121062E0,4.8348947E0,3.1960883E0,5.4220915E0,1.8066015E0,2.2802396E0,5.5038853E0,7.572583E0,4.2384567E0,3.5171719E0,4.2385025E0,7.1666017E0,4.6263494E0,5.337639E-1,0E0,8.882375E-1,0E0,5.23756E-1,5.3260736E0,6.237557E0,2.749175E0,3.2465816E0,1.9528008E-1,0E0,5.723785E0,4.6742024E0,1.8041239E0,5.2288547E0,0E0,0E0,0E0,0E0,0E0,0E0,0E0,0E0,0E0,0E0,0E0,0E0,0E0,0E0,0E0,0E0,0E0,0E0,0E0,0E0,0E0,0E0,0E0,0E0,0E0,0E0],"parents":[2147483647,0,0,1,1,2,2,3,3,4,4,5,5,6,6,7,7,8,8,9,9,10,10,11,11,12,12,13,13,14,14,15,15,16,16,18,18,20,20,21,21,22,22,23,23,24,24,25,25,27,27,28,28,29,29,30,30],"right_children":[2,4,6,8,10,12,14,16,18,20,22,24,26,28,30,32,34,-1,36,-1,38,40,42,44,46,48,-1,50,52,54,56,-1,-1,-1,-1,-1,-1,-1,-1,-1,-1,-1,-1,-1,-1,-1,-1,-1,-1,-1,-1,-1,-1,-1,-1,-1,-1],"split_conditions":[-6.7864436E-1,-3.540054E-3,1.8716563E-1,2.0039205E-1,7.5962E-2,1.4367272E0,-1.8364134E-1,-7.0071876E-1,-1.1166915E0,-4.6076217E-1,-4.808883E-2,-3.822706E-1,7.3847914E-1,-2.685469E-1,2.4697655E-1,-5.596401E-1,1.5062233E0,1.0203042E-1,-2.2084567E-1,-5.3982157E-2,5.759223E-1,-7.5308484E-1,1.3886032E-1,-1.1356078E0,1.1574033E0,-1.261883E-1,6.777215E-2,-1.0710191E-1,-9.4930634E-2,-1.9667889E-1,9.635287E-2,-1.1491896E-1,3.7538897E-2,-1.1330147E-1,-1.869985E-2,-7.1257584E-2,2.4762537E-2,1.5167367E-1,3.352002E-2,2.2834813E-2,-7.068863E-2,7.7335194E-2,-4.692694E-2,-3.5659354E-2,9.1374606E-2,1.3966243E-2,1.2239263E-1,-2.3300216E-2,-1.0707595E-1,9.3048374E-4,8.743768E-2,-6.074017E-2,3.0184532E-2,-1.5322195E-1,-3.960223E-2,9.2442535E-2,-9.814292E-2],"split_indices":[10,7,8,2,7,1,0,0,10,8,9,3,7,7,9,3,6,0,7,0,8,5,4,5,1,0,0,9,4,6,4,0,0,0,0,0,0,0,0,0,0,0,0,0,0,0,0,0,0,0,0,0,0,0,0,0,0],"split_type":[0,0,0,0,0,0,0,0,0,0,0,0,0,0,0,0,0,0,0,0,0,0,0,0,0,0,0,0,0,0,0,0,0,0,0,0,0,0,0,0,0,0,0,0,0,0,0,0,0,0,0,0,0,0,0,0,0],"sum_hessian":[2.1454117E2,7.1552605E1,1.4298857E2,1.9437414E1,5.2115192E1,7.279679E1,7.019177E1,1.6033146E1,3.4042678E0,5.6546354E0,4.6460556E1,6.8305336E1,4.4914565E0,5.7954014E1,1.223776E1,6.295851E0,9.737295E0,1.2119082E0,2.1923594E0,1.769732E0,3.8849032E0,3.0375547E1,1.6085009E1,1.5706939E1,5.25984E1,3.3206635E0,1.170793E0,3.549119E1,2.2462824E1,7.764411E0,4.4733486E0,2.5201895E0,3.7756615E0,8.629282E0,1.1080129E0,1.1425922E0,1.0497673E0,2.692987E0,1.1919162E0,7.643492E0,2.2732056E1,1.0743883E1,5.341125E0,1.3875451E0,1.4319393E1,5.064273E1,1.9556682E0,1.0495957E0,2.2710676E0,2.556392E1,9.927271E0,1.425308E1,8.2097435E0,4.7175946E0,3.0468163E0,3.2402308E0,1.2331176E0],"tree_param":{"num_deleted":"0","num_feature":"11","num_nodes":"57","size_leaf_vector":"1"}},{"base_weights":[-4.74406E-4,-4.659319E-2,5.028793E-1,-1.8088348E-2,-7.6289636E-1,7.601907E-1,1.2922458E-1,1.1347525E-3,-8.7165415E-1,-3.6792195E-4,-9.5502935E-2,8.682608E-2,-3.170084E-3,-1.6294478E-1,7.302735E-2,-1.653321E-1,9.413142E-2,-1.0997237E-1,-9.545202E-3,-6.857811E-2,2.2138266E-1,-5.4605663E-2,-1.1157605E-3,1.4902206E-2,-4.6884835E-2,4.6940207E-2,-1.0295759E-2],"categories":[],"categories_nodes":[],"categories_segments":[],"categories_sizes":[],"default_left":[0,0,0,0,0,0,0,0,0,0,0,0,0,0,0,0,0,0,0,0,0,0,0,0,0,0,0],"id":26,"left_children":[1,3,5,7,9,11,13,15,17,-1,-1,-1,-1,19,-1,21,23,-1,-1,-1,25,-1,-1,-1,-1,-1,-1],"loss_changes":[4.96212E0,3.9841564E0,1.6267262E0,3.1076322E0,1.0860562E0,9.1925144E-1,1.6154026E0,2.8975363E0,6.33482E-1,0E0,0E0,0E0,0E0,1.4682962E0,0E0,3.9318032E0,3.7805037E0,0E0,0E0,0E0,4.1288745E-1,0E0,0E0,0E0,0E0,0E0,0E0],"parents":[2147483647,0,0,1,1,2,2,3,3,4,4,5,5,6,6,7,7,8,8,13,13,15,15,16,16,20,20],"right_children":[2,4,6,8,10,12,14,16,18,-1,-1,-1,-1,20,-1,22,24,-1,-1,-1,26,-1,-1,-1,-1,-1,-1],"split_conditions":[1.1048334E0,1.9319488E0,-1.5541865E-1,2.0013635E0,-3.822706E-1,2.6684844E0,-1.0710191E-1,-6.7864436E-1,-9.305309E-1,-3.6792195E-4,-9.5502935E-2,8.682608E-2,-3.170084E-3,-6.0502E-1,7.302735E-2,-3.540054E-3,1.6043215E0,-1.0997237E-1,-9.545202E-3,-6.857811E-2,-9.847944E-2,-5.4605663E-2,-1.1157605E-3,1.4902206E-2,-4.6884835E-2,4.6940207E-2,-1.0295759E-2],"split_indices":[10,6,1,8,3,3,9,10,0,0,0,0,0,4,0,7,1,0,0,0,3,0,0,0,0,0,0],"split_type":[0,0,0,0,0,0,0,0,0,0,0,0,0,0,0,0,0,0,0,0,0,0,0,0,0,0,0],"sum_hessian":[2.1174557E2,1.9480444E2,1.6941133E1,1.8833502E2,6.4694223E0,9.419838E0,7.5212955E0,1.8516364E2,3.1713877E0,1.5123787E0,4.9570436E0,8.203818E0,1.2160195E0,5.5515776E0,1.969718E0,6.608738E1,1.1907625E2,2.1290216E0,1.0423659E0,2.0196686E0,3.531909E0,1.8315804E1,4.777158E1,1.0916767E2,9.908572E0,1.7479892E0,1.7839199E0],"tree_param":{"num_deleted":"0","num_feature":"11","num_nodes":"27","size_leaf_vector":"1"}},{"base_weights":[-1.297473E-3,-4.8254527E-2,4.413708E-1,-1.5125033E-2,-6.0356176E-1,8.016731E-2,6.3224757E-1,-5.892459E-1,1.1327088E-2,2.3322234E-2,-7.623241E-1,5.471398E-1,-1.6810673E-1,7.881444E-1,-9.642393E-3,-1.09745815E-1,-1.7886652E-1,7.207776E-2,-2.562784E-1,-6.6784113E-3,-8.9453745E-1,1.7178454E-2,6.514074E-2,-5.184586E-1,2.399418E-1,2.2105868E-1,9.065428E-2,3.8170096E-2,-5.0363153E-2,2.492329E-2,-8.2236335E-2,9.476088E-4,6.59051E-2,-4.725101E-2,3.6088627E-2,-1.9879367E-2,-9.7018115E-2,1.3632894E-2,-8.6428225E-2,-3.352329E-2,6.997522E-2,5.8901113E-2,-2.8023107E-2],"categories":[],"categories_nodes":[],"categories_segments":[],"categories_sizes":[],"default_left":[0,0,0,0,0,0,0,0,0,0,0,0,0,0,0,0,0,0,0,0,0,0,0,0,0,0,0,0,0,0,0,0,0,0,0,0,0,0,0,0,0,0,0],"id":27,"left_children":[1,3,5,7,9,11,13,15,17,-1,19,21,23,25,27,-1,29,31,33,-1,35,-1,-1,37,39,41,-1,-1,-1,-1,-1,-1,-1,-1,-1,-1,-1,-1,-1,-1,-1,-1,-1],"loss_changes":[4.4013014E0,3.5122116E0,1.3493848E0,2.7654505E0,1.6060226E0,1.0387392E0,1.3225818E0,1.4763334E0,2.857587E0,0E0,7.9277563E-1,8.23611E-3,9.959613E-1,5.1030207E-1,8.796378E-1,0E0,1.7563976E0,5.2523055E0,4.5116625E0,0E0,2.1285439E-1,0E0,0E0,9.322304E-1,1.1602237E0,7.462186E-1,0E0,0E0,0E0,0E0,0E0,0E0,0E0,0E0,0E0,0E0,0E0,0E0,0E0,0E0,0E0,0E0,0E0],"parents":[2147483647,0,0,1,1,2,2,3,3,4,4,5,5,6,6,7,7,8,8,10,10,11,11,12,12,13,13,14,14,16,16,17,17,18,18,20,20,23,23,24,24,25,25],"right_children":[2,4,6,8,10,12,14,16,18,-1,20,22,24,26,28,-1,30,32,34,-1,36,-1,-1,38,40,42,-1,-1,-1,-1,-1,-1,-1,-1,-1,-1,-1,-1,-1,-1,-1,-1,-1],"split_conditions":[1.0109661E0,1.5974501E0,-9.8798394E-1,-1.160343E0,-1.4326539E0,-3.4679672E-1,1.3914242E0,-5.596401E-1,2.238752E-1,2.3322234E-2,1.1961321E-2,-7.5379604E-1,-4.349902E-1,-6.0502E-1,-2.0159104E-1,-1.09745815E-1,3.1943187E-1,8.961204E-1,1.775397E0,-6.6784113E-3,-6.582015E-1,1.7178454E-2,6.514074E-2,-1.741985E0,-5.919955E-1,-7.325423E-1,9.065428E-2,3.8170096E-2,-5.0363153E-2,2.492329E-2,-8.2236335E-2,9.476088E-4,6.59051E-2,-4.725101E-2,3.6088627E-2,-1.9879367E-2,-9.7018115E-2,1.3632894E-2,-8.6428225E-2,-3.352329E-2,6.997522E-2,5.8901113E-2,-2.8023107E-2],"split_indices":[10,6,0,0,8,3,3,3,4,0,5,4,4,4,8,0,1,9,4,0,1,0,0,7,6,4,0,0,0,0,0,0,0,0,0,0,0,0,0,0,0,0,0],"split_type":[0,0,0,0,0,0,0,0,0,0,0,0,0,0,0,0,0,0,0,0,0,0,0,0,0,0,0,0,0,0,0,0,0,0,0,0,0,0,0,0,0,0,0],"sum_hessian":[2.0971489E2,1.9040791E2,1.9306967E1,1.806572E2,9.750727E0,7.16616E0,1.2140806E1,7.0199165E0,1.7363727E2,1.4801797E0,8.270547E0,2.069644E0,5.096516E0,9.585026E0,2.55578E0,2.3881671E0,4.631749E0,1.4210733E2,3.1529951E1,1.5614247E0,6.7091217E0,1.0254908E0,1.0441533E0,2.5965385E0,2.4999774E0,2.150756E0,7.4342704E0,1.5528808E0,1.0028992E0,3.1493018E0,1.4824475E0,1.2933018E2,1.2777135E1,2.3522812E1,8.007138E0,1.0136795E0,5.695442E0,1.1067628E0,1.4897759E0,1.2310256E0,1.2689519E0,1.1394182E0,1.0113376E0],"tree_param":{"num_deleted":"0","num_feature":"11","num_nodes":"43","size_leaf_vector":"1"}},{"base_weights":[-1.3934405E-3,-5.5222325E-2,3.5515484E-1,-2.97986E-2,-7.339174E-1,-1.2746012E-1,5.930393E-1,2.7596794E-2,-2.99174E-1,6.6133677E-3,-8.959025E-2,6.3174315E-2,-4.8123735E-1,6.705579E-1,-3.1211982E-2,-2.6861344E-2,5.6704557E-1,-5.188276E-1,2.958053E-1,-8.195094E-1,-5.0261363E-2,1.828642E-2,8.434212E-1,8.140348E-4,-8.88791E-2,8.755357E-2,-4.892743E-2,6.019531E-2,-6.546899E-2,9.0154E-2,-5.7043284E-2,-2.6832206E-2,-9.466456E-2,4.5775082E-2,-7.285511E-2,7.113964E-2,-4.6727687E-2,9.487847E-2,-2.3358786E-2],"categories":[],"categories_nodes":[],"categories_segments":[],"categories_sizes":[],"default_left":[0,0,0,0,0,0,0,0,0,0,0,0,0,0,0,0,0,0,0,0,0,0,0,0,0,0,0,0,0,0,0,0,0,0,0,0,0,0,0],"id":28,"left_children":[1,3,5,7,9,11,13,15,17,-1,-1,-1,19,21,-1,23,25,27,29,31,33,35,37,-1,-1,-1,-1,-1,-1,-1,-1,-1,-1,-1,-1,-1,-1,-1,-1],"loss_changes":[4.029472E0,3.1252272E0,3.2372966E0,2.7424376E0,9.0722275E-1,2.9672585E0,1.5160604E0,4.3248515E0,4.22395E0,0E0,0E0,0E0,1.0276409E0,1.954639E0,0E0,4.0559707E0,4.826473E0,3.9132814E0,5.2550254E0,2.9251099E-2,1.8114982E0,1.9083234E0,1.7864418E0,0E0,0E0,0E0,0E0,0E0,0E0,0E0,0E0,0E0,0E0,0E0,0E0,0E0,0E0,0E0,0E0],"parents":[2147483647,0,0,1,1,2,2,3,3,4,4,5,5,6,6,7,7,8,8,12,12,13,13,15,15,16,16,17,17,18,18,19,19,20,20,21,21,22,22],"right_children":[2,4,6,8,10,12,14,16,18,-1,-1,-1,20,22,-1,24,26,28,30,32,34,36,38,-1,-1,-1,-1,-1,-1,-1,-1,-1,-1,-1,-1,-1,-1,-1,-1],"split_conditions":[8.2323164E-1,1.9319488E0,-5.837662E-1,2.238752E-1,-1.691825E0,-1.7737858E0,2.3251076E0,8.961204E-1,1.775397E0,6.6133677E-3,-8.959025E-2,6.3174315E-2,-1.10289E0,-9.9216175E-1,-3.1211982E-2,7.1908116E-1,2.5945562E-1,-1.0399771E0,5.431037E0,1.2175654E-2,-8.091609E-1,-7.699311E-1,1.3249977E0,8.140348E-4,-8.88791E-2,8.755357E-2,-4.892743E-2,6.019531E-2,-6.546899E-2,9.0154E-2,-5.7043284E-2,-2.6832206E-2,-9.466456E-2,4.5775082E-2,-7.285511E-2,7.113964E-2,-4.6727687E-2,9.487847E-2,-2.3358786E-2],"split_indices":[10,6,4,4,8,7,10,9,4,0,0,0,0,5,0,9,6,5,4,1,7,1,1,0,0,0,0,0,0,0,0,0,0,0,0,0,0,0,0],"split_type":[0,0,0,0,0,0,0,0,0,0,0,0,0,0,0,0,0,0,0,0,0,0,0,0,0,0,0,0,0,0,0,0,0,0,0,0,0,0,0],"sum_hessian":[2.0792741E2,1.8138799E2,2.6539427E1,1.758448E2,5.54319E0,8.915677E0,1.7623749E1,1.4569858E2,3.0146215E1,1.0329816E0,4.510208E0,2.5842302E0,6.331447E0,1.6472235E1,1.1515148E0,1.3320187E2,1.2496716E1,2.211122E1,8.034997E0,3.0421505E0,3.2892966E0,3.6825438E0,1.278969E1,1.2895572E2,4.246146E0,9.804525E0,2.6921906E0,2.0196595E0,2.009156E1,4.7045155E0,3.3304813E0,1.1531749E0,1.8889757E0,2.0666196E0,1.2226768E0,1.3254521E0,2.3570917E0,1.1758424E1,1.0312667E0],"tree_param":{"num_deleted":"0","num_feature":"11","num_nodes":"39","size_leaf_vector":"1"}},{"base_weights":[-1.6657334E-3,-1.8300322E-1,8.976607E-2,-6.914679E-1,-9.421168E-2,2.504231E-1,-7.8519635E-2,1.8490655E-2,-8.3598787E-1,-2.2308259E-1,2.8602412E-1,6.507372E-1,1.5333606E-1,4.882556E-2,-6.457745E-1,-1.6710313E-2,-8.999597E-1,-4.8749563E-1,8.574003E-2,7.50762E-1,-1.43888E-1,-3.8590405E-2,8.062337E-1,-1.2013945E-1,3.952585E-1,2.4308652E-1,-2.4280843E-1,-1.1009387E0,2.6980597E-1,-9.862401E-2,-3.1167885E-2,-8.477721E-3,-7.5068526E-2,3.01741E-2,-5.117736E-2,-2.8836852E-2,1.0175055E-1,-1.0118139E-1,3.163042E-2,8.9662574E-2,2.7447596E-2,-3.2037796E-4,-1.229245E-1,1.08325556E-1,1.852679E-2,8.674298E-4,8.244967E-2,-5.6024887E-2,3.0495767E-2,-1.4242963E-1,-3.639148E-2,8.7386854E-2,-9.075054E-2],"categories":[],"categories_nodes":[],"categories_segments":[],"categories_sizes":[],"default_left":[0,0,0,0,0,0,0,0,0,0,0,0,0,0,0,0,0,0,0,0,0,0,0,0,0,0,0,0,0,0,0,0,0,0,0,0,0,0,0,0,0,0,0,0,0,0,0,0,0,0,0,0,0],"id":29,"left_children":[1,3,5,7,9,11,13,-1,15,17,19,21,23,25,27,-1,29,31,33,35,37,-1,39,41,43,45,47,49,51,-1,-1,-1,-1,-1,-1,-1,-1,-1,-1,-1,-1,-1,-1,-1,-1,-1,-1,-1,-1,-1,-1,-1,-1],"loss_changes":[3.4467554E0,3.0807273E0,3.756491E0,1.4466105E0,3.027347E0,2.6576762E0,4.9628906E0,0E0,2.3208189E-1,3.7760832E0,3.2542722E0,2.4937243E0,3.9118094E0,3.270137E0,5.542102E0,0E0,9.5116615E-2,2.5635428E0,2.9866877E0,2.4354653E0,3.922461E0,0E0,3.3539772E-1,3.6512823E0,4.310541E0,4.697458E0,4.1981726E0,1.5320921E0,4.33638E0,0E0,0E0,0E0,0E0,0E0,0E0,0E0,0E0,0E0,0E0,0E0,0E0,0E0,0E0,0E0,0E0,0E0,0E0,0E0,0E0,0E0,0E0,0E0,0E0],"parents":[2147483647,0,0,1,1,2,2,3,3,4,4,5,5,6,6,8,8,9,9,10,10,11,11,12,12,13,13,14,14,16,16,17,17,18,18,19,19,20,20,22,22,23,23,24,24,25,25,26,26,27,27,28,28],"right_children":[2,4,6,8,10,12,14,-1,16,18,20,22,24,26,28,-1,30,32,34,36,38,-1,40,42,44,46,48,50,52,-1,-1,-1,-1,-1,-1,-1,-1,-1,-1,-1,-1,-1,-1,-1,-1,-1,-1,-1,-1,-1,-1,-1,-1],"split_conditions":[-6.7864436E-1,-8.152588E-1,1.8716563E-1,-6.236561E-1,8.3388156E-1,-1.0492549E0,-1.8364134E-1,1.8490655E-2,-9.375254E-1,-8.6637884E-1,5.5984527E-1,-1.7754968E0,-1.16184354E-1,-2.685469E-1,2.4697655E-1,-1.6710313E-2,3.81544E-1,-2.2708786E-1,-9.847944E-2,-2.7531648E-2,1.0228726E0,-3.8590405E-2,1.5355041E0,2.2293866E0,-3.1169467E-2,-1.0710191E-1,-9.4930634E-2,-1.9667889E-1,9.635287E-2,-9.862401E-2,-3.1167885E-2,-8.477721E-3,-7.5068526E-2,3.01741E-2,-5.117736E-2,-2.8836852E-2,1.0175055E-1,-1.0118139E-1,3.163042E-2,8.9662574E-2,2.7447596E-2,-3.2037796E-4,-1.229245E-1,1.08325556E-1,1.852679E-2,8.674298E-4,8.244967E-2,-5.6024887E-2,3.0495767E-2,-1.4242963E-1,-3.639148E-2,8.7386854E-2,-9.075054E-2],"split_indices":[10,9,8,7,7,1,0,0,1,10,2,1,4,7,9,0,8,6,3,3,0,0,2,0,4,9,4,6,4,0,0,0,0,0,0,0,0,0,0,0,0,0,0,0,0,0,0,0,0,0,0,0,0],"split_type":[0,0,0,0,0,0,0,0,0,0,0,0,0,0,0,0,0,0,0,0,0,0,0,0,0,0,0,0,0,0,0,0,0,0,0,0,0,0,0,0,0,0,0,0,0,0,0,0,0,0,0,0,0],"sum_hessian":[2.0589537E2,6.868007E1,1.372153E2,9.201299E0,5.947877E1,6.9949066E1,6.7266235E1,1.2629955E0,7.9383035E0,4.473151E1,1.4747261E1,1.2540175E1,5.740889E1,5.5680283E1,1.1585951E1,1.0082498E0,6.9300537E0,2.3786777E1,2.0944733E1,6.727968E0,8.019293E0,1.4424051E0,1.1097771E1,2.7183424E1,3.0225466E1,3.3519203E1,2.2161083E1,7.6035404E0,3.982411E0,5.453706E0,1.4763478E0,9.923892E0,1.38628845E1,1.57471485E1,5.1975837E0,1.3577247E0,5.3702435E0,2.36334E0,5.655953E0,8.898912E0,2.1988573E0,2.5497997E1,1.6854266E0,6.0956264E0,2.4129839E1,2.461135E1,8.907853E0,1.4015852E1,8.14523E0,4.636745E0,2.9667952E0,2.8023202E0,1.1800907E0],"tree_param":{"num_deleted":"0","num_feature":"11","num_nodes":"53","size_leaf_vector":"1"}},{"base_weights":[-2.852219E-3,-3.8814224E-2,4.3330598E-1,-1.5679933E-2,-6.9950855E-1,7.021991E-1,8.964766E-2,2.255874E-3,-8.2901144E-1,4.834385E-3,-9.118144E-2,8.28653E-1,-6.780722E-3,6.3272156E-2,-1.7273335E-1,-5.7199866E-1,2.5409807E-2,-1.0117551E-1,-1.4382404E-2,9.089374E-2,1.5341425E-2,-6.6429466E-2,1.8172927E-1,4.054364E-2,-8.578772E-2,4.9238047E-3,-5.1113278E-2,-3.794929E-2,5.4838993E-2],"categories":[],"categories_nodes":[],"categories_segments":[],"categories_sizes":[],"default_left":[0,0,0,0,0,0,0,0,0,0,0,0,0,0,0,0,0,0,0,0,0,0,0,0,0,0,0,0,0],"id":30,"left_children":[1,3,5,7,9,11,13,15,17,-1,-1,19,-1,-1,21,23,25,-1,-1,-1,-1,-1,27,-1,-1,-1,-1,-1,-1],"loss_changes":[3.22835E0,2.8942215E0,1.3858397E0,2.6957116E0,1.0613897E0,8.984027E-1,1.2533181E0,2.430163E0,3.5372758E-1,0E0,0E0,2.674179E-1,0E0,0E0,1.2008098E0,2.3272402E0,2.270107E0,0E0,0E0,0E0,0E0,0E0,1.1108346E0,0E0,0E0,0E0,0E0,0E0,0E0],"parents":[2147483647,0,0,1,1,2,2,3,3,4,4,5,5,6,6,7,7,8,8,11,11,14,14,15,15,16,16,22,22],"right_children":[2,4,6,8,10,12,14,16,18,-1,-1,20,-1,-1,22,24,26,-1,-1,-1,-1,-1,28,-1,-1,-1,-1,-1,-1],"split_conditions":[1.1048334E0,1.9319488E0,5.759223E-1,2.0013635E0,-3.822706E-1,2.6684844E0,-3.4679672E-1,-1.1103243E0,-9.305309E-1,4.834385E-3,-9.118144E-2,1.7976995E-1,-6.780722E-3,6.3272156E-2,-6.262737E-1,-6.0502E-1,1.8557129E0,-1.0117551E-1,-1.4382404E-2,9.089374E-2,1.5341425E-2,-6.6429466E-2,-5.919955E-1,4.054364E-2,-8.578772E-2,4.9238047E-3,-5.1113278E-2,-3.794929E-2,5.4838993E-2],"split_indices":[10,6,8,8,3,3,3,9,0,0,0,1,0,0,4,4,1,0,0,0,0,0,6,0,0,0,0,0,0],"split_type":[0,0,0,0,0,0,0,0,0,0,0,0,0,0,0,0,0,0,0,0,0,0,0,0,0,0,0,0,0],"sum_hessian":[2.0375014E2,1.8907184E2,1.4678294E1,1.8366454E2,5.407304E0,7.649606E0,7.028688E0,1.8067741E2,2.987121E0,1.366404E0,4.0408998E0,6.5051394E0,1.1444668E0,